{"learner":{"attributes":{},"feature_names":["log_return","high_low_range","close_open_return","candle_size","upper_wick","lower_wick","volatility_20","mean_return_10","mean_return_20","price_vs_ma20","range_mean_20","volume_mean_20","volume_ratio"],"feature_types":["float","float","float","float","float","float","float","float","float","float","float","float","float"],"gradient_booster":{"model":{"cats":{"enc":[],"feature_segments":[],"sorted_idx":[]},"gbtree_model_param":{"num_parallel_tree":"1","num_trees":"300"},"iteration_indptr":[0,1,2,3,4,5,6,7,8,9,10,11,12,13,14,15,16,17,18,19,20,21,22,23,24,25,26,27,28,29,30,31,32,33,34,35,36,37,38,39,40,41,42,43,44,45,46,47,48,49,50,51,52,53,54,55,56,57,58,59,60,61,62,63,64,65,66,67,68,69,70,71,72,73,74,75,76,77,78,79,80,81,82,83,84,85,86,87,88,89,90,91,92,93,94,95,96,97,98,99,100,101,102,103,104,105,106,107,108,109,110,111,112,113,114,115,116,117,118,119,120,121,122,123,124,125,126,127,128,129,130,131,132,133,134,135,136,137,138,139,140,141,142,143,144,145,146,147,148,149,150,151,152,153,154,155,156,157,158,159,160,161,162,163,164,165,166,167,168,169,170,171,172,173,174,175,176,177,178,179,180,181,182,183,184,185,186,187,188,189,190,191,192,193,194,195,196,197,198,199,200,201,202,203,204,205,206,207,208,209,210,211,212,213,214,215,216,217,218,219,220,221,222,223,224,225,226,227,228,229,230,231,232,233,234,235,236,237,238,239,240,241,242,243,244,245,246,247,248,249,250,251,252,253,254,255,256,257,258,259,260,261,262,263,264,265,266,267,268,269,270,271,272,273,274,275,276,277,278,279,280,281,282,283,284,285,286,287,288,289,290,291,292,293,294,295,296,297,298,299,300],"tree_info":[0,0,0,0,0,0,0,0,0,0,0,0,0,0,0,0,0,0,0,0,0,0,0,0,0,0,0,0,0,0,0,0,0,0,0,0,0,0,0,0,0,0,0,0,0,0,0,0,0,0,0,0,0,0,0,0,0,0,0,0,0,0,0,0,0,0,0,0,0,0,0,0,0,0,0,0,0,0,0,0,0,0,0,0,0,0,0,0,0,0,0,0,0,0,0,0,0,0,0,0,0,0,0,0,0,0,0,0,0,0,0,0,0,0,0,0,0,0,0,0,0,0,0,0,0,0,0,0,0,0,0,0,0,0,0,0,0,0,0,0,0,0,0,0,0,0,0,0,0,0,0,0,0,0,0,0,0,0,0,0,0,0,0,0,0,0,0,0,0,0,0,0,0,0,0,0,0,0,0,0,0,0,0,0,0,0,0,0,0,0,0,0,0,0,0,0,0,0,0,0,0,0,0,0,0,0,0,0,0,0,0,0,0,0,0,0,0,0,0,0,0,0,0,0,0,0,0,0,0,0,0,0,0,0,0,0,0,0,0,0,0,0,0,0,0,0,0,0,0,0,0,0,0,0,0,0,0,0,0,0,0,0,0,0,0,0,0,0,0,0,0,0,0,0,0,0,0,0,0,0,0,0,0,0,0,0,0,0,0,0,0,0,0,0,0,0,0,0,0,0],"trees":[{"base_weights":[-8.441414E-4,4.0863596E-2,-8.925179E-2,1.0410106E-2,1.4107713E-1,1.0907887E-1,-1.2332494E-1,2.5689533E-2,-1.7721543E-1,3.1588638E-1,9.6539095E-2,-2.901846E-1,1.666274E-1,-6.514179E-1,-1.101027E-1,3.849416E-5,5.0437753E-3,-3.0692259E-2,-3.847527E-3,1.9397622E-2,-8.040777E-3,1.4704222E-2,2.640982E-3,1.47797335E-2,-2.152046E-2,6.335365E-2,7.129058E-3,-4.5578174E-2,-1.3794613E-2,-2.4541296E-2,-4.6117627E-3],"categories":[],"categories_nodes":[],"categories_segments":[],"categories_sizes":[],"default_left":[0,0,0,0,0,0,0,0,0,0,0,0,0,0,0,0,0,0,0,0,0,0,0,0,0,0,0,0,0,0,0],"id":0,"left_children":[1,3,5,7,9,11,13,15,17,19,21,23,25,27,29,-1,-1,-1,-1,-1,-1,-1,-1,-1,-1,-1,-1,-1,-1,-1,-1],"loss_changes":[3.0851646E1,1.7348455E1,1.8137768E1,1.2507175E1,1.0284634E1,9.095425E0,1.59132E1,7.557354E0,1.4335651E1,9.289047E0,9.116021E0,4.231641E0,8.942665E0,5.1913204E0,1.515534E1,0E0,0E0,0E0,0E0,0E0,0E0,0E0,0E0,0E0,0E0,0E0,0E0,0E0,0E0,0E0,0E0],"parents":[2147483647,0,0,1,1,2,2,3,3,4,4,5,5,6,6,7,7,8,8,9,9,10,10,11,11,12,12,13,13,14,14],"right_children":[2,4,6,8,10,12,14,16,18,20,22,24,26,28,30,-1,-1,-1,-1,-1,-1,-1,-1,-1,-1,-1,-1,-1,-1,-1,-1],"split_conditions":[3.036267E-3,2.05E-1,-9.9762E-3,2.0023216E-2,1.1442938E-2,9.9999E-4,-1.5128498E-2,1.1192362E0,1.654302E-2,7.09573E-3,-7.691028E-3,6.9727E6,1.424175E6,-2.255751E-3,4.9999E-4,3.849416E-5,5.0437753E-3,-3.0692259E-2,-3.847527E-3,1.9397622E-2,-8.040777E-3,1.4704222E-2,2.640982E-3,1.47797335E-2,-2.152046E-2,6.335365E-2,7.129058E-3,-4.5578174E-2,-1.3794613E-2,-2.4541296E-2,-4.6117627E-3],"split_indices":[7,4,2,2,6,4,0,12,0,2,7,11,11,2,4,0,0,0,0,0,0,0,0,0,0,0,0,0,0,0,0],"split_type":[0,0,0,0,0,0,0,0,0,0,0,0,0,0,0,0,0,0,0,0,0,0,0,0,0,0,0,0,0,0,0],"sum_hessian":[8.365053E3,5.684049E3,2.6810042E3,4.3601606E3,1.323888E3,3.9274426E2,2.28826E3,4.032624E3,3.275367E2,2.6757574E2,1.0563121E3,4.8968113E1,3.4377612E2,5.471437E1,2.2335457E3,3.029527E3,1.0030968E3,6.0210793E1,2.6732593E2,2.3259854E2,3.4977222E1,1.9037602E2,8.659361E2,9.24398E0,3.9724133E1,6.2459326E0,3.375302E2,3.1479502E1,2.3234869E1,9.893558E1,2.1346099E3],"tree_param":{"num_deleted":"0","num_feature":"13","num_nodes":"31","size_leaf_vector":"1"}},{"base_weights":[3.174481E-3,5.2041702E-2,-6.625809E-2,3.3714067E-2,2.2278868E-1,4.126794E-1,-7.287378E-2,1.0870498E-1,-1.0069655E-2,3.5272723E-1,3.4110233E-2,5.1130396E-1,-7.875024E-1,-4.1595552E-2,-1.6743869E-1,8.110951E-3,-4.226338E-4,1.8925099E-3,-4.7503626E-3,1.0965297E-2,2.7553206E-2,6.6391677E-3,-3.9237503E-2,1.52845895E-2,5.21263E-2,-1.0687931E-2,-5.6928903E-2,-1.3039893E-3,-1.51811605E-2,-1.7122963E-2,-3.1980337E-3],"categories":[],"categories_nodes":[],"categories_segments":[],"categories_sizes":[],"default_left":[0,0,0,0,0,0,0,0,0,0,0,0,0,0,0,0,0,0,0,0,0,0,0,0,0,0,0,0,0,0,0],"id":1,"left_children":[1,3,5,7,9,11,13,15,17,19,21,23,25,27,29,-1,-1,-1,-1,-1,-1,-1,-1,-1,-1,-1,-1,-1,-1,-1,-1],"loss_changes":[2.8525385E1,1.543387E1,1.103383E1,1.4635752E1,1.1709873E1,6.0213127E0,1.0127684E1,1.0303123E1,1.1461439E1,7.368702E0,1.5948554E1,4.538558E0,5.6195474E-1,1.046534E1,1.5395739E1,0E0,0E0,0E0,0E0,0E0,0E0,0E0,0E0,0E0,0E0,0E0,0E0,0E0,0E0,0E0,0E0],"parents":[2147483647,0,0,1,1,2,2,3,3,4,4,5,5,6,6,7,7,8,8,9,9,10,10,11,11,12,12,13,13,14,14],"right_children":[2,4,6,8,10,12,14,16,18,20,22,24,26,28,30,-1,-1,-1,-1,-1,-1,-1,-1,-1,-1,-1,-1,-1,-1,-1,-1],"split_conditions":[3.617949E-3,7.1E-1,1.0576693E-2,5.334E-2,3.3E-1,1.76781E-2,4.4482533E-2,2.9464966E-2,1.8670982E-3,-1.915927E-2,6.2295083E-2,3.8852273E-3,3.78873E-2,3.4112148E-2,9.600809E-3,8.110951E-3,-4.226338E-4,1.8925099E-3,-4.7503626E-3,1.0965297E-2,2.7553206E-2,6.6391677E-3,-3.9237503E-2,1.52845895E-2,5.21263E-2,-1.0687931E-2,-5.6928903E-2,-1.3039893E-3,-1.51811605E-2,-1.7122963E-2,-3.1980337E-3],"split_indices":[0,3,10,5,5,1,9,10,7,0,1,7,9,2,2,0,0,0,0,0,0,0,0,0,0,0,0,0,0,0,0],"split_type":[0,0,0,0,0,0,0,0,0,0,0,0,0,0,0,0,0,0,0,0,0,0,0,0,0,0,0,0,0,0,0],"sum_hessian":[8.405169E3,4.933313E3,3.4718564E3,4.456192E3,4.7712115E2,4.646797E1,3.4253884E3,1.642133E3,2.8140588E3,2.820265E2,1.9509468E2,4.346983E1,2.9981415E0,2.5750925E3,8.502961E2,1.1269789E3,5.151541E2,1.7994209E3,1.0146378E3,1.698644E2,1.12162094E2,1.748616E2,2.0233078E1,3.2475483E1,1.09943495E1,1.7488914E0,1.2492502E0,2.4321726E3,1.4291971E2,3.1507504E2,5.35221E2],"tree_param":{"num_deleted":"0","num_feature":"13","num_nodes":"31","size_leaf_vector":"1"}},{"base_weights":[7.6242286E-4,7.363997E-2,-3.6019113E-2,6.0284343E-2,4.3046093E-1,-2.0534951E-2,-2.8029382E-1,1.2459986E-1,-1.0771307E-2,-1.3580342E-1,6.129895E-1,1.6594404E-2,-9.361519E-2,-2.1172991E-1,-6.669602E-1,9.605281E-3,2.9802932E-3,1.4636889E-3,-9.981143E-3,2.2414388E-2,-1.9052994E-2,1.8591562E-2,5.802032E-2,2.900305E-3,-5.0013117E-3,5.115427E-3,-6.315909E-3,-7.344457E-3,-3.3747666E-2,-3.9167807E-2,9.3138395E-3],"categories":[],"categories_nodes":[],"categories_segments":[],"categories_sizes":[],"default_left":[0,0,0,0,0,0,0,0,0,0,0,0,0,0,0,0,0,0,0,0,0,0,0,0,0,0,0,0,0,0,0],"id":2,"left_children":[1,3,5,7,9,11,13,15,17,19,21,23,25,27,29,-1,-1,-1,-1,-1,-1,-1,-1,-1,-1,-1,-1,-1,-1,-1,-1],"loss_changes":[2.2442892E1,1.3357083E1,2.1040344E1,1.2377397E1,1.0538792E1,1.4202604E1,8.650049E0,6.2255955E0,9.743129E0,3.8204708E0,9.691372E0,1.6770214E1,1.1311212E1,8.40472E0,5.059841E0,0E0,0E0,0E0,0E0,0E0,0E0,0E0,0E0,0E0,0E0,0E0,0E0,0E0,0E0,0E0,0E0],"parents":[2147483647,0,0,1,1,2,2,3,3,4,4,5,5,6,6,7,7,8,8,9,9,10,10,11,11,12,12,13,13,14,14],"right_children":[2,4,6,8,10,12,14,16,18,20,22,24,26,28,30,-1,-1,-1,-1,-1,-1,-1,-1,-1,-1,-1,-1,-1,-1,-1,-1],"split_conditions":[4.95E-2,3.8E-1,2.1152416E-2,2.6344166E-3,4.073925E6,2.6104946E-3,8.477794E-2,2.305824E-2,3.8E-1,3.17501E-1,5.2E-1,2.6726648E-2,-1.0212419E-2,1.0461173E8,7.954212E7,9.605281E-3,2.9802932E-3,1.4636889E-3,-9.981143E-3,2.2414388E-2,-1.9052994E-2,1.8591562E-2,5.802032E-2,2.900305E-3,-5.0013117E-3,5.115427E-3,-6.315909E-3,-7.344457E-3,-3.3747666E-2,-3.9167807E-2,9.3138395E-3],"split_indices":[5,4,2,0,11,7,9,10,3,3,3,1,2,11,11,0,0,0,0,0,0,0,0,0,0,0,0,0,0,0,0],"split_type":[0,0,0,0,0,0,0,0,0,0,0,0,0,0,0,0,0,0,0,0,0,0,0,0,0,0,0,0,0,0,0],"sum_hessian":[8.370513E3,2.8072773E3,5.563235E3,2.70712E3,1.0015716E2,5.2326313E3,3.306036E2,1.4205583E3,1.2865619E3,2.4477085E1,7.568008E1,3.4702827E3,1.7623488E3,2.8212463E2,4.8478947E1,6.958552E2,7.2470306E2,1.0621771E3,2.2438467E2,6.993607E0,1.7483479E1,5.3701664E1,2.1978407E1,2.561281E3,9.090018E2,2.5178357E2,1.5105652E3,2.4863806E2,3.3486588E1,4.273154E1,5.7474065E0],"tree_param":{"num_deleted":"0","num_feature":"13","num_nodes":"31","size_leaf_vector":"1"}},{"base_weights":[6.821668E-3,-1.2863135E-2,1.16088E-1,6.793514E-2,-3.7151128E-2,2.856843E-1,5.546161E-2,5.4303294E-1,5.4211356E-2,-1.924432E-4,-1.5492103E-1,4.0019402E-1,4.528184E-2,3.3749944E-1,1.3097329E-2,-1.4581223E-2,3.878047E-2,1.3675265E-3,1.1478041E-2,-1.7226785E-3,6.577377E-3,-3.278198E-2,-6.8509816E-3,-3.281793E-3,2.2702081E-2,-3.5827197E-3,3.177507E-2,3.6579117E-2,-7.4362964E-3,1.0296809E-2,-1.4748424E-3],"categories":[],"categories_nodes":[],"categories_segments":[],"categories_sizes":[],"default_left":[0,0,0,0,0,0,0,0,0,0,0,0,0,0,0,0,0,0,0,0,0,0,0,0,0,0,0,0,0,0,0],"id":3,"left_children":[1,3,5,7,9,11,13,15,17,19,21,23,25,27,29,-1,-1,-1,-1,-1,-1,-1,-1,-1,-1,-1,-1,-1,-1,-1,-1],"loss_changes":[1.8012482E1,1.392864E1,1.3128471E1,1.0666833E1,2.375167E1,9.2425785E0,1.126255E1,9.145387E0,7.5088167E0,1.8755842E1,1.1593584E1,5.742363E0,7.6144795E0,2.3697235E1,6.7485466E0,0E0,0E0,0E0,0E0,0E0,0E0,0E0,0E0,0E0,0E0,0E0,0E0,0E0,0E0,0E0,0E0],"parents":[2147483647,0,0,1,1,2,2,3,3,4,4,5,5,6,6,7,7,8,8,9,9,10,10,11,11,12,12,13,13,14,14],"right_children":[2,4,6,8,10,12,14,16,18,20,22,24,26,28,30,-1,-1,-1,-1,-1,-1,-1,-1,-1,-1,-1,-1,-1,-1,-1,-1],"split_conditions":[2.7504E-1,-9.9762E-3,1.6517946E-2,1.4498432E-2,2.586207E-2,2.2096364E-3,-1.5128593E-2,7.06458E-1,4.015369E-3,1.0830026E0,-2.0095296E-2,4E-2,1.5809167E-2,4.6508983E-2,6.776169E-1,-1.4581223E-2,3.878047E-2,1.3675265E-3,1.1478041E-2,-1.7226785E-3,6.577377E-3,-3.278198E-2,-6.8509816E-3,-3.281793E-3,2.2702081E-2,-3.5827197E-3,3.177507E-2,3.6579117E-2,-7.4362964E-3,1.0296809E-2,-1.4748424E-3],"split_indices":[4,2,10,1,1,8,2,12,8,12,0,3,10,1,12,0,0,0,0,0,0,0,0,0,0,0,0,0,0,0,0],"split_type":[0,0,0,0,0,0,0,0,0,0,0,0,0,0,0,0,0,0,0,0,0,0,0,0,0,0,0,0,0,0,0],"sum_hessian":[8.372752E3,7.095372E3,1.2773796E3,1.6394977E3,5.455874E3,3.354051E2,9.419746E2,4.4946457E1,1.5945513E3,4.153439E3,1.3024353E3,2.2673897E2,1.08666145E2,1.2210446E2,8.198701E2,9.739607E0,3.5206852E1,1.3837396E3,2.1081155E2,3.2967927E3,8.566461E2,4.372694E1,1.2587084E3,2.3471395E1,2.0326756E2,9.1430275E1,1.723587E1,6.716389E1,5.494057E1,1.4763585E2,6.722343E2],"tree_param":{"num_deleted":"0","num_feature":"13","num_nodes":"31","size_leaf_vector":"1"}},{"base_weights":[7.4562943E-3,-1.7658036E-2,1.1535617E-1,4.8470497E-2,-6.41286E-2,1.3411906E-1,-3.213167E-1,-1.6815038E-1,6.654792E-2,-2.4126435E-2,-1.7177168E-1,3.5938904E-1,9.605787E-2,2.264286E-1,-4.6785587E-1,1.1863568E-2,-1.621043E-2,4.332484E-3,-6.792323E-3,1.1114221E-3,-5.5022496E-3,3.863385E-2,-9.098658E-3,-3.4871164E-3,2.3845065E-2,9.275294E-3,2.6951055E-4,3.7510566E-2,-3.834372E-2,-2.6871575E-2,3.7043367E-2],"categories":[],"categories_nodes":[],"categories_segments":[],"categories_sizes":[],"default_left":[0,0,0,0,0,0,0,0,0,0,0,0,0,0,0,0,0,0,0,0,0,0,0,0,0,0,0,0,0,0,0],"id":4,"left_children":[1,3,5,7,9,11,13,15,17,19,21,23,25,27,29,-1,-1,-1,-1,-1,-1,-1,-1,-1,-1,-1,-1,-1,-1,-1,-1],"loss_changes":[2.26994E1,2.0885395E1,1.3001423E1,1.0995668E1,1.7182125E1,1.2973455E1,5.35953E0,1.3764687E1,1.0548004E1,1.1596483E1,1.0557831E1,1.1072887E1,1.0535697E1,8.113338E0,4.7681847E0,0E0,0E0,0E0,0E0,0E0,0E0,0E0,0E0,0E0,0E0,0E0,0E0,0E0,0E0,0E0,0E0],"parents":[2147483647,0,0,1,1,2,2,3,3,4,4,5,5,6,6,7,7,8,8,9,9,10,10,11,11,12,12,13,13,14,14],"right_children":[2,4,6,8,10,12,14,16,18,20,22,24,26,28,30,-1,-1,-1,-1,-1,-1,-1,-1,-1,-1,-1,-1,-1,-1,-1,-1],"split_conditions":[2.4E-1,5.334E-2,2.2120612E0,5.5185425E-1,2.6887871E-2,3.66091E-2,2.0334E-1,6.75E-3,7.398411E8,2.6104946E-3,-2.5816659E-2,7.5046575E-1,-3.976934E-4,3.4473836E7,4.6564434E-2,1.1863568E-2,-1.621043E-2,4.332484E-3,-6.792323E-3,1.1114221E-3,-5.5022496E-3,3.863385E-2,-9.098658E-3,-3.4871164E-3,2.3845065E-2,9.275294E-3,2.6951055E-4,3.7510566E-2,-3.834372E-2,-2.6871575E-2,3.7043367E-2],"split_indices":[4,5,12,12,1,5,3,5,11,7,7,12,0,11,10,0,0,0,0,0,0,0,0,0,0,0,0,0,0,0,0],"split_type":[0,0,0,0,0,0,0,0,0,0,0,0,0,0,0,0,0,0,0,0,0,0,0,0,0,0,0,0,0,0,0],"sum_hessian":[8.374927E3,6.794341E3,1.5805863E3,2.804062E3,3.9902788E3,1.5161342E3,6.445217E1,2.1534096E2,2.588721E3,2.9100679E3,1.080211E3,2.1791782E2,1.2982163E3,1.3488533E1,5.096364E1,5.970741E1,1.5563356E2,2.3553591E3,2.3336172E2,1.8907236E3,1.0193442E3,1.0744535E1,1.0694664E3,4.6933292E1,1.7098453E2,6.529771E2,6.4523926E2,8.991774E0,4.496759E0,4.871492E1,2.2487183E0],"tree_param":{"num_deleted":"0","num_feature":"13","num_nodes":"31","size_leaf_vector":"1"}},{"base_weights":[-2.2764858E-3,1.5307319E-2,-1.4552104E-1,9.091318E-2,-2.0678459E-2,-5.039633E-1,-1.0510279E-1,-1.473411E-1,1.0671747E-1,2.1537168E-2,-1.0570206E-1,5.8598537E-2,-5.443553E-1,-7.360529E-2,-6.535086E-1,1.5751029E-3,-2.4962237E-2,5.787734E-3,-1.992015E-2,3.0477312E-3,-4.118715E-3,-6.0239467E-3,1.28936935E-2,2.4113074E-2,-2.9692477E-2,1.4061011E-2,-5.401697E-3,1.2361876E-3,-3.9813098E-2],"categories":[],"categories_nodes":[],"categories_segments":[],"categories_sizes":[],"default_left":[0,0,0,0,0,0,0,0,0,0,0,0,0,0,0,0,0,0,0,0,0,0,0,0,0,0,0,0,0],"id":5,"left_children":[1,3,5,7,9,11,13,15,17,19,21,-1,23,25,27,-1,-1,-1,-1,-1,-1,-1,-1,-1,-1,-1,-1,-1,-1],"loss_changes":[2.1136847E1,2.0337519E1,1.3239185E1,9.092251E0,1.8181606E1,6.913845E0,1.4215854E1,9.4793215E0,1.0367834E1,1.3870736E1,9.060051E0,0E0,4.920933E0,9.584033E0,4.349972E0,0E0,0E0,0E0,0E0,0E0,0E0,0E0,0E0,0E0,0E0,0E0,0E0,0E0,0E0],"parents":[2147483647,0,0,1,1,2,2,3,3,4,4,5,5,6,6,7,7,8,8,9,9,10,10,12,12,13,13,14,14],"right_children":[2,4,6,8,10,12,14,16,18,20,22,-1,24,26,28,-1,-1,-1,-1,-1,-1,-1,-1,-1,-1,-1,-1,-1,-1],"split_conditions":[3.2600794E-2,4.95E-2,1.50001E-3,7.4998E-4,2.6104946E-3,2.3988558E-2,5.299983E-1,2.765153E-3,2.2120612E0,2.5715671E-2,6.8E-1,5.8598537E-2,-2.5816659E-2,1.50001E-3,1.30001E-1,1.5751029E-3,-2.4962237E-2,5.787734E-3,-1.992015E-2,3.0477312E-3,-4.118715E-3,-6.0239467E-3,1.28936935E-2,2.4113074E-2,-2.9692477E-2,1.4061011E-2,-5.401697E-3,1.2361876E-3,-3.9813098E-2],"split_indices":[6,5,4,4,7,10,5,7,12,1,4,0,7,5,3,0,0,0,0,0,0,0,0,0,0,0,0,0,0],"split_type":[0,0,0,0,0,0,0,0,0,0,0,0,0,0,0,0,0,0,0,0,0,0,0,0,0,0,0,0,0],"sum_hessian":[8.389801E3,7.4733164E3,9.164844E2,2.4094832E3,5.063833E3,9.170913E1,8.2477527E2,1.4936961E2,2.2601135E3,3.3842456E3,1.6795873E3,1.4989766E0,9.021015E1,7.810501E2,4.372513E1,9.9640945E1,4.9728672E1,2.2211455E3,3.8968124E1,2.4538306E3,9.3041516E2,1.6146322E3,6.495515E1,3.7469373E0,8.646321E1,6.8448105E1,7.1260205E2,7.74671E0,3.597842E1],"tree_param":{"num_deleted":"0","num_feature":"13","num_nodes":"29","size_leaf_vector":"1"}},{"base_weights":[-5.725061E-3,1.8010557E-2,-1.2301617E-1,5.022961E-2,-7.5421326E-2,6.812603E-1,-1.3115801E-1,1.2642458E-1,1.863599E-2,-1.84147E-1,-8.529317E-3,8.6817133E-1,-3.5051864E-2,-3.0579114E-1,-9.2644125E-2,5.2529834E-3,2.5968103E-2,4.329925E-4,1.6764777E-2,-1.881022E-2,-6.9819726E-3,7.4524427E-4,-1.9304128E-2,-3.4613382E-2,5.466337E-2,-1.7359653E-2,9.826576E-3,-2.2218225E-4,-9.024928E-3],"categories":[],"categories_nodes":[],"categories_segments":[],"categories_sizes":[],"default_left":[0,0,0,0,0,0,0,0,0,0,0,0,0,0,0,0,0,0,0,0,0,0,0,0,0,0,0,0,0],"id":6,"left_children":[1,3,5,7,9,11,13,15,17,19,21,23,-1,25,27,-1,-1,-1,-1,-1,-1,-1,-1,-1,-1,-1,-1,-1,-1],"loss_changes":[2.322613E1,2.0891745E1,9.284027E0,1.24197035E1,1.294155E1,4.2860293E0,9.326586E0,1.2641508E1,1.1524093E1,5.7413845E0,9.763241E0,5.317691E0,0E0,5.2860126E0,8.840667E0,0E0,0E0,0E0,0E0,0E0,0E0,0E0,0E0,0E0,0E0,0E0,0E0,0E0,0E0],"parents":[2147483647,0,0,1,1,2,2,3,3,4,4,5,5,6,6,7,7,8,8,9,9,10,10,11,11,13,13,14,14],"right_children":[2,4,6,8,10,12,14,16,18,20,22,24,-1,26,28,-1,-1,-1,-1,-1,-1,-1,-1,-1,-1,-1,-1,-1,-1],"split_conditions":[4.4482533E-2,7.09573E-3,1.0576693E-2,4.95E-2,-1.1727521E-3,4.4E-1,1.3845933E-2,3.6E-1,6.1601643E-3,1.322E-2,3.4112148E-2,1.05E-2,-3.5051864E-2,7.740812E-2,7E-2,5.2529834E-3,2.5968103E-2,4.329925E-4,1.6764777E-2,-1.881022E-2,-6.9819726E-3,7.4524427E-4,-1.9304128E-2,-3.4613382E-2,5.466337E-2,-1.7359653E-2,9.826576E-3,-2.2218225E-4,-9.024928E-3],"split_indices":[9,2,10,5,7,5,6,4,2,4,2,4,0,9,5,0,0,0,0,0,0,0,0,0,0,0,0,0,0],"split_type":[0,0,0,0,0,0,0,0,0,0,0,0,0,0,0,0,0,0,0,0,0,0,0,0,0,0,0,0,0],"sum_hessian":[8.340992E3,6.9378584E3,1.4031334E3,5.159217E3,1.778642E3,1.3233297E1,1.3899001E3,1.5113242E3,3.6478923E3,6.768093E2,1.1018326E3,1.1984692E1,1.248606E0,2.498894E2,1.1400107E3,1.4345897E3,7.673456E1,3.537474E3,1.1041833E2,1.2593341E2,5.508759E2,1.0383446E3,6.3488075E1,1.2492254E0,1.0735466E1,2.3114688E2,1.8742523E1,5.694093E2,5.7060144E2],"tree_param":{"num_deleted":"0","num_feature":"13","num_nodes":"29","size_leaf_vector":"1"}},{"base_weights":[-9.80746E-5,2.0203896E-2,-1.0003491E-1,-8.195048E-3,1.1626449E-1,-1.703196E-1,1.3655159E-2,2.2676973E-2,-8.641875E-2,1.7002992E-1,-9.228828E-3,-4.8483127E-1,-1.4664178E-1,8.960673E-2,-2.849209E-1,6.779414E-4,1.3890058E-2,1.5650007E-4,-8.339657E-3,1.8388791E-2,6.4827665E-3,1.954485E-3,-3.1790975E-2,-1.6669638E-2,-4.313698E-2,-3.823885E-2,-6.714099E-3,-2.1478152E-2,6.6273767E-3,1.6218903E-2,-1.8495856E-2],"categories":[],"categories_nodes":[],"categories_segments":[],"categories_sizes":[],"default_left":[0,0,0,0,0,0,0,0,0,0,0,0,0,0,0,0,0,0,0,0,0,0,0,0,0,0,0,0,0,0,0],"id":7,"left_children":[1,3,5,7,9,11,13,15,17,19,21,23,25,27,29,-1,-1,-1,-1,-1,-1,-1,-1,-1,-1,-1,-1,-1,-1,-1,-1],"loss_changes":[1.6987429E1,1.8985165E1,1.1298738E1,1.2974978E1,1.0715794E1,6.4352493E0,1.2294142E1,8.958455E0,1.0943402E1,8.828228E0,1.4473311E1,3.1883183E0,6.1159515E0,9.689008E0,5.8141937E0,0E0,0E0,0E0,0E0,0E0,0E0,0E0,0E0,0E0,0E0,0E0,0E0,0E0,0E0,0E0,0E0],"parents":[2147483647,0,0,1,1,2,2,3,3,4,4,5,5,6,6,7,7,8,8,9,9,10,10,11,11,12,12,13,13,14,14],"right_children":[2,4,6,8,10,12,14,16,18,20,22,24,26,28,30,-1,-1,-1,-1,-1,-1,-1,-1,-1,-1,-1,-1,-1,-1,-1,-1],"split_conditions":[4.4482533E-2,2.05E-1,5.0582076E7,2.6887871E-2,3.2E-1,1E-2,9.008179E-3,4.9963533E-3,5.75E-2,-4.112346E-3,1.9912084E0,1.1240023E0,1.3359261E-3,1.5190147E-3,6.4205366E-1,6.779414E-4,1.3890058E-2,1.5650007E-4,-8.339657E-3,1.8388791E-2,6.4827665E-3,1.954485E-3,-3.1790975E-2,-1.6669638E-2,-4.313698E-2,-3.823885E-2,-6.714099E-3,-2.1478152E-2,6.6273767E-3,1.6218903E-2,-1.8495856E-2],"split_indices":[9,4,11,1,5,4,8,8,5,8,12,12,7,8,12,0,0,0,0,0,0,0,0,0,0,0,0,0,0,0,0],"split_type":[0,0,0,0,0,0,0,0,0,0,0,0,0,0,0,0,0,0,0,0,0,0,0,0,0,0,0,0,0,0,0],"sum_hessian":[8.370672E3,6.957971E3,1.4127003E3,5.3710205E3,1.5869508E3,8.726924E2,5.4000793E2,3.8516326E3,1.5193878E3,1.1107251E3,4.762257E2,5.9736614E1,8.1295575E2,4.310561E2,1.08951866E2,3.7197422E3,1.318905E2,7.191317E2,8.002561E2,1.8695439E2,9.2377075E2,4.4300195E2,3.3223763E1,4.3990566E1,1.5746051E1,1.4743268E1,7.9821246E2,3.224147E1,3.9881464E2,1.2993203E1,9.5958664E1],"tree_param":{"num_deleted":"0","num_feature":"13","num_nodes":"31","size_leaf_vector":"1"}},{"base_weights":[7.92614E-4,3.2724854E-2,-6.3590795E-2,-4.051952E-3,1.2906782E-1,5.9185294E-3,-1.1921931E-1,1.1132954E-1,-2.9109163E-2,1.87454E-1,4.9561553E-2,3.2067043E-1,-1.4974458E-2,-1.5801017E-1,5.843993E-2,8.514101E-3,-7.7206166E-3,1.0669997E-2,-2.0968835E-3,1.7812772E-2,6.7375414E-3,-4.194151E-3,7.06559E-3,8.265059E-3,5.199268E-2,2.4241014E-4,-1.3862738E-2,-6.720447E-3,-2.320339E-2,2.069241E-2,-8.8952994E-4],"categories":[],"categories_nodes":[],"categories_segments":[],"categories_sizes":[],"default_left":[0,0,0,0,0,0,0,0,0,0,0,0,0,0,0,0,0,0,0,0,0,0,0,0,0,0,0,0,0,0,0],"id":8,"left_children":[1,3,5,7,9,11,13,15,17,19,21,23,25,27,29,-1,-1,-1,-1,-1,-1,-1,-1,-1,-1,-1,-1,-1,-1,-1,-1],"loss_changes":[1.7214558E1,1.9832336E1,1.073482E1,1.1717604E1,7.1689796E0,8.126346E0,1.0636236E1,1.1355046E1,1.03676815E1,7.880789E0,8.04502E0,8.423126E0,6.0275483E0,9.082001E0,7.514377E0,0E0,0E0,0E0,0E0,0E0,0E0,0E0,0E0,0E0,0E0,0E0,0E0,0E0,0E0,0E0,0E0],"parents":[2147483647,0,0,1,1,2,2,3,3,4,4,5,5,6,6,7,7,8,8,9,9,10,10,11,11,12,12,13,13,14,14],"right_children":[2,4,6,8,10,12,14,16,18,20,22,24,26,28,30,-1,-1,-1,-1,-1,-1,-1,-1,-1,-1,-1,-1,-1,-1,-1,-1],"split_conditions":[2.871522E-3,7.497227E-3,7E-2,1.13734845E-2,2.1168549E-2,9.260882E-3,3E-1,5.7883436E7,4.9999E-4,3.285E-2,1.4239088E-2,1.7E-1,7.949632E8,5.299983E-1,1.2667E-1,8.514101E-3,-7.7206166E-3,1.0669997E-2,-2.0968835E-3,1.7812772E-2,6.7375414E-3,-4.194151E-3,7.06559E-3,8.265059E-3,5.199268E-2,2.4241014E-4,-1.3862738E-2,-6.720447E-3,-2.320339E-2,2.069241E-2,-8.8952994E-4],"split_indices":[7,9,5,6,9,6,4,11,5,5,6,4,11,5,5,0,0,0,0,0,0,0,0,0,0,0,0,0,0,0,0],"split_type":[0,0,0,0,0,0,0,0,0,0,0,0,0,0,0,0,0,0,0,0,0,0,0,0,0,0,0,0,0,0,0],"sum_hessian":[8.371209E3,5.5961685E3,2.7750403E3,4.0508167E3,1.545352E3,1.2340078E3,1.5410323E3,7.221363E2,3.3286802E3,8.90239E2,6.5511304E2,7.592052E1,1.1580874E3,1.2649487E3,2.760836E2,5.9131714E2,1.308192E2,1.6645187E2,3.1622283E3,2.1044652E2,6.797925E2,2.6694507E2,3.8816797E2,6.3444164E1,1.2476358E1,1.077624E3,8.046331E1,1.1757235E3,8.922522E1,4.797618E1,2.2810742E2],"tree_param":{"num_deleted":"0","num_feature":"13","num_nodes":"31","size_leaf_vector":"1"}},{"base_weights":[3.5264087E-4,1.16347885E-2,-1.4836222E-1,1.574524E-2,-3.5825935E-1,7.219651E-1,-1.6005401E-1,2.410857E-2,-1.8194789E-1,1.2944336E-1,-5.5069566E-1,6.7632176E-2,2.3995599E-1,-2.8903458E-1,-1.1467777E-1,3.9013603E-3,-8.0429825E-5,-1.96612E-2,-1.6021766E-3,-2.5013728E-2,2.4961967E-2,-3.1186754E-2,4.1877642E-2,-3.407694E-2,4.5658138E-2,-1.0944218E-2,-5.919313E-2,-4.226326E-3,-3.240908E-2],"categories":[],"categories_nodes":[],"categories_segments":[],"categories_sizes":[],"default_left":[0,0,0,0,0,0,0,0,0,0,0,0,0,0,0,0,0,0,0,0,0,0,0,0,0,0,0,0,0],"id":9,"left_children":[1,3,5,7,9,11,13,15,17,19,21,-1,23,25,27,-1,-1,-1,-1,-1,-1,-1,-1,-1,-1,-1,-1,-1,-1],"loss_changes":[1.4027702E1,1.1821035E1,6.114628E0,1.2713251E1,8.090835E0,2.1062627E0,3.376337E0,1.022729E1,9.871938E0,6.0682664E0,6.754547E0,0E0,4.1881943E0,9.216448E0,6.9039636E0,0E0,0E0,0E0,0E0,0E0,0E0,0E0,0E0,0E0,0E0,0E0,0E0,0E0,0E0],"parents":[2147483647,0,0,1,1,2,2,3,3,4,4,5,5,6,6,7,7,8,8,9,9,10,10,12,12,13,13,14,14],"right_children":[2,4,6,8,10,12,14,16,18,20,22,-1,24,26,28,-1,-1,-1,-1,-1,-1,-1,-1,-1,-1,-1,-1,-1,-1],"split_conditions":[2.7802281E-2,2.4725714E0,1.13734845E-2,7.5392164E-3,6.432345E6,2.456556E-2,-2.0499025E-3,4.95E-2,3.603174E7,2.5084317E-2,6.9122813E-3,6.7632176E-2,2.8795812E-2,-2.4539751E-3,5.1E-1,3.9013603E-3,-8.0429825E-5,-1.96612E-2,-1.6021766E-3,-2.5013728E-2,2.4961967E-2,-3.1186754E-2,4.1877642E-2,-3.407694E-2,4.5658138E-2,-1.0944218E-2,-5.919313E-2,-4.226326E-3,-3.240908E-2],"split_indices":[0,12,6,8,11,1,7,5,11,1,8,0,1,7,5,0,0,0,0,0,0,0,0,0,0,0,0,0,0],"split_type":[0,0,0,0,0,0,0,0,0,0,0,0,0,0,0,0,0,0,0,0,0,0,0,0,0,0,0,0,0],"sum_hessian":[8.358628E3,7.770078E3,5.8854974E2,7.685629E3,8.444918E1,6.996368E0,5.8155334E2,7.374531E3,3.1109857E2,2.3986391E1,6.046279E1,2.2483208E0,4.748047E0,1.499514E2,4.3160196E2,2.3808352E3,4.9936953E3,1.284447E2,1.8265387E2,8.743843E0,1.5242548E1,5.796386E1,2.4989297E0,1.9991735E0,2.7488735E0,1.4020465E2,9.746759E0,4.09611E2,2.1990952E1],"tree_param":{"num_deleted":"0","num_feature":"13","num_nodes":"29","size_leaf_vector":"1"}},{"base_weights":[-9.315983E-3,4.3345038E-2,-4.0637095E-2,-2.4810225E-1,5.3865224E-2,-2.5858037E-2,-2.80839E-1,-4.6272072E-1,-2.7102305E-2,1.1055605E-1,-8.827028E-3,-4.6748333E-2,1.1033713E-1,-2.3666495E-1,-7.7532274E-1,1.5575341E-2,-3.0263007E-2,4.2469677E-2,-1.8563604E-2,4.740632E-3,2.403935E-2,-7.554538E-3,2.1897426E-3,7.9772185E-4,-4.811422E-3,7.632859E-3,-1.1217434E-2,-1.3845992E-2,1.0007861E-2,-5.52032E-2,-1.53796E-2],"categories":[],"categories_nodes":[],"categories_segments":[],"categories_sizes":[],"default_left":[0,0,0,0,0,0,0,0,0,0,0,0,0,0,0,0,0,0,0,0,0,0,0,0,0,0,0,0,0,0,0],"id":10,"left_children":[1,3,5,7,9,11,13,15,17,19,21,23,25,27,29,-1,-1,-1,-1,-1,-1,-1,-1,-1,-1,-1,-1,-1,-1,-1,-1],"loss_changes":[1.3797028E1,9.578798E0,1.8612408E1,5.1510997E0,1.0705474E1,1.4066299E1,6.454891E0,6.2768526E0,1.6815851E1,9.173815E0,1.072061E1,1.3297763E1,9.347534E0,4.9864864E0,3.4250326E0,0E0,0E0,0E0,0E0,0E0,0E0,0E0,0E0,0E0,0E0,0E0,0E0,0E0,0E0,0E0,0E0],"parents":[2147483647,0,0,1,1,2,2,3,3,4,4,5,5,6,6,7,7,8,8,9,9,10,10,11,11,12,12,13,13,14,14],"right_children":[2,4,6,8,10,12,14,16,18,20,22,24,26,28,30,-1,-1,-1,-1,-1,-1,-1,-1,-1,-1,-1,-1,-1,-1,-1,-1],"split_conditions":[5.334E-2,1.74999E-3,2.1152416E-2,1.9713676E-2,3.753853E-3,6.60001E-1,1.1628544E-1,-3.7007995E-3,3.107013E-2,7.9E-1,-6.844213E-4,1.6725205E-2,4.813188E-2,6.275899E-3,1.0033532E-2,1.5575341E-2,-3.0263007E-2,4.2469677E-2,-1.8563604E-2,4.740632E-3,2.403935E-2,-7.554538E-3,2.1897426E-3,7.9772185E-4,-4.811422E-3,7.632859E-3,-1.1217434E-2,-1.3845992E-2,1.0007861E-2,-5.52032E-2,-1.53796E-2],"split_indices":[5,3,2,1,2,3,9,7,10,3,8,1,9,8,8,0,0,0,0,0,0,0,0,0,0,0,0,0,0,0,0],"split_type":[0,0,0,0,0,0,0,0,0,0,0,0,0,0,0,0,0,0,0,0,0,0,0,0,0,0,0,0,0,0,0],"sum_hessian":[8.362801E3,3.118761E3,5.24404E3,1.0786712E2,3.0108938E3,4.9411313E3,3.029085E2,5.416875E1,5.3698368E1,1.5807252E3,1.4301685E3,4.284595E3,6.565359E2,2.7942505E2,2.3483458E1,8.237879E0,4.5930874E1,1.47265E1,3.8971867E1,1.5174543E3,6.3270947E1,3.8566052E2,1.0445079E3,1.8900902E3,2.3945051E3,5.8332056E2,7.3215324E1,2.5618286E2,2.3242208E1,1.2991797E1,1.0491661E1],"tree_param":{"num_deleted":"0","num_feature":"13","num_nodes":"31","size_leaf_vector":"1"}},{"base_weights":[-1.2268653E-3,2.4978261E-2,-5.518662E-2,-3.3760641E-3,9.765408E-2,3.5941935E-1,-6.518578E-2,2.7728286E-2,-1.1200143E-1,3.0391774E-1,7.590313E-2,4.5990992E-1,-4.0417594E-1,-1.8150578E-1,-3.597232E-2,3.5976348E-4,9.264701E-3,-2.744137E-3,-1.3658284E-2,-1.4495827E-2,1.8669767E-2,4.095318E-3,-3.343194E-2,6.630473E-3,3.987055E-2,-4.6730842E-2,2.7244983E-2,-1.3334959E-2,9.973707E-3,6.529072E-3,-3.9528464E-3],"categories":[],"categories_nodes":[],"categories_segments":[],"categories_sizes":[],"default_left":[0,0,0,0,0,0,0,0,0,0,0,0,0,0,0,0,0,0,0,0,0,0,0,0,0,0,0,0,0,0,0],"id":11,"left_children":[1,3,5,7,9,11,13,15,17,19,21,23,25,27,29,-1,-1,-1,-1,-1,-1,-1,-1,-1,-1,-1,-1,-1,-1,-1,-1],"loss_changes":[1.1757879E1,1.1534075E1,1.1292097E1,1.3609926E1,7.0245037E0,5.109461E0,9.015409E0,1.0130136E1,8.239299E0,6.2770214E0,6.412161E0,6.2094707E0,4.533851E0,1.734296E1,1.5246844E1,0E0,0E0,0E0,0E0,0E0,0E0,0E0,0E0,0E0,0E0,0E0,0E0,0E0,0E0,0E0,0E0],"parents":[2147483647,0,0,1,1,2,2,3,3,4,4,5,5,6,6,7,7,8,8,9,9,10,10,11,11,12,12,13,13,14,14],"right_children":[2,4,6,8,10,12,14,16,18,20,22,24,26,28,30,-1,-1,-1,-1,-1,-1,-1,-1,-1,-1,-1,-1,-1,-1,-1,-1],"split_conditions":[2.9254947E-3,7.497227E-3,1.1204763E-2,7.09573E-3,2.7763468E6,1.739135E-2,1.3276015E-2,6.5E-1,6.655892E7,9.719444E-3,1.16E0,3.8369305E-2,6.8E-1,9.610649E7,7.59207E6,3.5976348E-4,9.264701E-3,-2.744137E-3,-1.3658284E-2,-1.4495827E-2,1.8669767E-2,4.095318E-3,-3.343194E-2,6.630473E-3,3.987055E-2,-4.6730842E-2,2.7244983E-2,-1.3334959E-2,9.973707E-3,6.529072E-3,-3.9528464E-3],"split_indices":[7,9,10,2,11,1,1,3,11,9,5,9,3,11,11,0,0,0,0,0,0,0,0,0,0,0,0,0,0,0,0],"split_type":[0,0,0,0,0,0,0,0,0,0,0,0,0,0,0,0,0,0,0,0,0,0,0,0,0,0,0,0,0,0,0],"sum_hessian":[8.313227E3,5.5960747E3,2.717152E3,4.0262102E3,1.5698643E3,6.3164104E1,2.6539878E3,3.13054E3,8.956703E2,1.4851625E2,1.421348E3,5.6169765E1,6.9943404E0,5.316981E2,2.1222898E3,2.770545E3,3.5999503E2,6.622876E2,2.333827E2,1.5223778E1,1.3329247E2,1.4108623E3,1.0485749E1,2.9222956E1,2.6946808E1,4.49648E0,2.4978604E0,4.347752E2,9.6922905E1,4.3575293E2,1.6865369E3],"tree_param":{"num_deleted":"0","num_feature":"13","num_nodes":"31","size_leaf_vector":"1"}},{"base_weights":[-9.6661726E-4,2.0598967E-2,-1.0645452E-1,1.3889358E-3,1.1794738E-1,-1.9068085E-1,-1.031266E-2,-7.74774E-3,2.106523E-1,2.9487073E-1,5.1421557E-2,-1.7644988E-1,-8.004916E-1,2.726809E-1,-5.9394985E-2,-9.992854E-5,-1.2825592E-2,1.1731716E-2,-3.6782343E-2,3.2722276E-2,1.0276685E-2,1.081499E-2,-1.8754986E-4,-1.1753973E-2,-6.245612E-5,1.4705895E-2,-5.0479304E-2,1.0074938E-2,5.3989906E-2,-1.4280784E-2,-8.722842E-5],"categories":[],"categories_nodes":[],"categories_segments":[],"categories_sizes":[],"default_left":[0,0,0,0,0,0,0,0,0,0,0,0,0,0,0,0,0,0,0,0,0,0,0,0,0,0,0,0,0,0,0],"id":12,"left_children":[1,3,5,7,9,11,13,15,17,19,21,23,25,27,29,-1,-1,-1,-1,-1,-1,-1,-1,-1,-1,-1,-1,-1,-1,-1,-1],"loss_changes":[1.904617E1,1.299911E1,1.1505463E1,1.1103714E1,1.3468795E1,6.4318066E0,9.24826E0,7.957994E0,5.6862154E0,9.915157E0,7.5854797E0,7.615658E0,4.1855288E0,5.4367723E0,7.397263E0,0E0,0E0,0E0,0E0,0E0,0E0,0E0,0E0,0E0,0E0,0E0,0E0,0E0,0E0,0E0,0E0],"parents":[2147483647,0,0,1,1,2,2,3,3,4,4,5,5,6,6,7,7,8,8,9,9,10,10,11,11,12,12,13,13,14,14],"right_children":[2,4,6,8,10,12,14,16,18,20,22,24,26,28,30,-1,-1,-1,-1,-1,-1,-1,-1,-1,-1,-1,-1,-1,-1,-1,-1],"split_conditions":[4.4482533E-2,2.7E-1,3.1662736E7,4.8360717E-3,1.6517946E-2,3.0036411E0,-9.9762E-3,3.4112148E-2,5.492942E-2,-2.5081702E-3,-5.4710433E-3,1.90001E-1,4.976151E-3,7.1428575E-2,-1.283148E-3,-9.992854E-5,-1.2825592E-2,1.1731716E-2,-3.6782343E-2,3.2722276E-2,1.0276685E-2,1.081499E-2,-1.8754986E-4,-1.1753973E-2,-6.245612E-5,1.4705895E-2,-5.0479304E-2,1.0074938E-2,5.3989906E-2,-1.4280784E-2,-8.722842E-5],"split_indices":[9,4,11,8,10,12,2,2,6,7,7,4,7,1,2,0,0,0,0,0,0,0,0,0,0,0,0,0,0,0,0],"split_type":[0,0,0,0,0,0,0,0,0,0,0,0,0,0,0,0,0,0,0,0,0,0,0,0,0,0,0,0,0,0,0],"sum_hessian":[8.370316E3,6.9502383E3,1.420078E3,5.8056143E3,1.1446237E3,7.564217E2,6.636563E2,5.5636616E3,2.4195279E2,3.1184613E2,8.327776E2,7.404318E2,1.5989882E1,9.741808E1,5.662382E2,5.43897E3,1.2469161E2,2.3670601E2,5.246775E0,6.080104E1,2.5104509E2,2.0806714E2,6.2471045E2,5.5452313E2,1.8590866E2,2.4993205E0,1.3490562E1,9.067116E1,6.746919E0,1.1419233E2,4.520459E2],"tree_param":{"num_deleted":"0","num_feature":"13","num_nodes":"31","size_leaf_vector":"1"}},{"base_weights":[3.936027E-3,9.571815E-3,-2.2951713E-1,7.934842E-2,-1.0571722E-2,-5.7676077E-1,-8.724195E-2,5.1884357E-2,2.4804033E-1,-1.8976253E-1,3.3366769E-3,4.536762E-1,-6.6840464E-1,1.748413E-1,-2.9274583E-1,8.205762E-3,-2.9113865E-4,2.0128975E-2,-8.975315E-3,-3.2963734E-2,-7.486445E-3,1.2595919E-3,-4.3582893E-3,5.6081604E-2,-2.8074393E-2,-4.023811E-2,-5.445606E-3,5.1516827E-2,8.194348E-4,-2.7066741E-2,-1.2763182E-3],"categories":[],"categories_nodes":[],"categories_segments":[],"categories_sizes":[],"default_left":[0,0,0,0,0,0,0,0,0,0,0,0,0,0,0,0,0,0,0,0,0,0,0,0,0,0,0,0,0,0,0],"id":13,"left_children":[1,3,5,7,9,11,13,15,17,19,21,23,25,27,29,-1,-1,-1,-1,-1,-1,-1,-1,-1,-1,-1,-1,-1,-1,-1,-1],"loss_changes":[1.097194E1,1.1444871E1,9.661243E0,8.43796E0,1.5749158E1,5.6816444E0,7.624812E0,1.0168702E1,1.6929077E1,8.456526E0,1.1602501E1,4.1879272E0,3.9334393E0,8.445574E0,5.2466793E0,0E0,0E0,0E0,0E0,0E0,0E0,0E0,0E0,0E0,0E0,0E0,0E0,0E0,0E0,0E0,0E0],"parents":[2147483647,0,0,1,1,2,2,3,3,4,4,5,5,6,6,7,7,8,8,9,9,10,10,11,11,12,12,13,13,14,14],"right_children":[2,4,6,8,10,12,14,16,18,20,22,24,26,28,30,-1,-1,-1,-1,-1,-1,-1,-1,-1,-1,-1,-1,-1,-1,-1,-1],"split_conditions":[6.3825E-2,-9.328358E-3,7.612841E-1,3.7364883E-3,-1.0662706E-2,4.486336E-2,-6.638511E-2,-4.164964E-2,-8.533625E-3,-3.4321766E-2,4.4482533E-2,5.1844932E-2,8.013082E-2,8.5154915E-1,7.521579E-2,8.205762E-3,-2.9113865E-4,2.0128975E-2,-8.975315E-3,-3.2963734E-2,-7.486445E-3,1.2595919E-3,-4.3582893E-3,5.6081604E-2,-2.8074393E-2,-4.023811E-2,-5.445606E-3,5.1516827E-2,8.194348E-4,-2.7066741E-2,-1.2763182E-3],"split_indices":[10,2,12,8,0,6,9,9,0,0,9,1,1,12,1,0,0,0,0,0,0,0,0,0,0,0,0,0,0,0,0],"split_type":[0,0,0,0,0,0,0,0,0,0,0,0,0,0,0,0,0,0,0,0,0,0,0,0,0,0,0,0,0,0,0],"sum_hessian":[8.336619E3,8.141045E3,1.955738E2,1.8230647E3,6.3179805E3,5.5954567E1,1.3961925E2,1.5689395E3,2.5412524E2,4.5415585E2,5.863824E3,4.247344E0,5.1707226E1,6.1428032E1,7.819121E1,5.3215045E2,1.0367891E3,1.866999E2,6.742535E1,3.446653E1,4.196893E2,4.723808E3,1.1400164E3,2.4985044E0,1.7488394E0,4.1222298E1,1.0484925E1,8.739649E0,5.2688385E1,3.997627E1,3.8214935E1],"tree_param":{"num_deleted":"0","num_feature":"13","num_nodes":"31","size_leaf_vector":"1"}},{"base_weights":[-4.717285E-3,-2.7469479E-2,7.535356E-2,3.797944E-2,-5.0373327E-2,9.788363E-2,-3.539842E-1,-1.3177831E-1,6.400967E-2,-1.3783702E-2,-1.1445228E-1,2.7553323E-1,6.533221E-2,8.545825E-1,-4.0032327E-1,-3.9100803E-2,-3.3658145E-3,-4.9819625E-3,4.2677484E-3,9.046301E-3,-1.4006562E-3,-1.1343288E-2,-3.6697008E-3,1.6829614E-2,-1.3826487E-2,1.0796496E-2,9.5725927E-4,5.6795914E-2,8.068411E-3,-1.4432293E-2,-3.7128296E-2],"categories":[],"categories_nodes":[],"categories_segments":[],"categories_sizes":[],"default_left":[0,0,0,0,0,0,0,0,0,0,0,0,0,0,0,0,0,0,0,0,0,0,0,0,0,0,0,0,0,0,0],"id":14,"left_children":[1,3,5,7,9,11,13,15,17,19,21,23,25,27,29,-1,-1,-1,-1,-1,-1,-1,-1,-1,-1,-1,-1,-1,-1,-1,-1],"loss_changes":[1.5261346E1,9.780586E0,1.7965187E1,7.483437E0,1.1329294E1,1.01713505E1,5.5303144E0,9.388024E0,5.1343083E0,8.531096E0,8.089954E0,9.280443E0,1.0363087E1,5.4607034E-1,3.2217197E0,0E0,0E0,0E0,0E0,0E0,0E0,0E0,0E0,0E0,0E0,0E0,0E0,0E0,0E0,0E0,0E0],"parents":[2147483647,0,0,1,1,2,2,3,3,4,4,5,5,6,6,7,7,8,8,9,9,10,10,11,11,12,12,13,13,14,14],"right_children":[2,4,6,8,10,12,14,16,18,20,22,24,26,28,30,-1,-1,-1,-1,-1,-1,-1,-1,-1,-1,-1,-1,-1,-1,-1,-1],"split_conditions":[2.05E-1,2.666E-2,2.0516472E0,1.50001E-3,2.315321E-2,-1.0212419E-2,1.22887865E-2,1.1225972E-2,6.0013485E-1,1.1769037E-2,3E-2,-4.798474E-3,1.55514525E-2,4.63312E-3,2.8893616E-2,-3.9100803E-2,-3.3658145E-3,-4.9819625E-3,4.2677484E-3,9.046301E-3,-1.4006562E-3,-1.1343288E-2,-3.6697008E-3,1.6829614E-2,-1.3826487E-2,1.0796496E-2,9.5725927E-4,5.6795914E-2,8.068411E-3,-1.4432293E-2,-3.7128296E-2],"split_indices":[4,5,12,4,1,2,1,6,12,10,4,0,10,0,10,0,0,0,0,0,0,0,0,0,0,0,0,0,0,0,0],"split_type":[0,0,0,0,0,0,0,0,0,0,0,0,0,0,0,0,0,0,0,0,0,0,0,0,0,0,0,0,0,0,0],"sum_hessian":[8.374991E3,6.5223247E3,1.8526667E3,1.6906234E3,4.831701E3,1.7610265E3,9.164018E1,2.2423013E2,1.4663932E3,3.0763147E3,1.7553865E3,2.7155402E2,1.4894725E3,2.7398677E0,8.8900314E1,1.9220346E1,2.0500978E2,1.6877454E2,1.2976187E3,2.08709E2,2.8676057E3,4.6840753E2,1.286979E3,2.4486217E2,2.6691828E1,3.4872913E2,1.1407434E3,1.4946502E0,1.2452173E0,6.8418144E1,2.048217E1],"tree_param":{"num_deleted":"0","num_feature":"13","num_nodes":"31","size_leaf_vector":"1"}},{"base_weights":[-6.349397E-3,2.387045E-2,-6.2275123E-2,-4.534117E-3,1.1766914E-1,-7.24202E-2,2.3584045E-1,6.469012E-2,-4.01329E-2,1.4477636E-1,-1.04860604E-1,-6.1313014E-2,-3.4580874E-1,1.2357973E-1,9.356029E-1,2.1088887E-3,2.082703E-2,-2.1863019E-3,3.3357915E-2,3.3079978E-2,6.0858005E-3,5.03999E-3,-1.4393975E-2,3.6976952E-3,-4.1348217E-3,-2.341997E-2,1.4550315E-2,6.410026E-2,2.7134197E-3,6.0245093E-2,6.0147187E-4],"categories":[],"categories_nodes":[],"categories_segments":[],"categories_sizes":[],"default_left":[0,0,0,0,0,0,0,0,0,0,0,0,0,0,0,0,0,0,0,0,0,0,0,0,0,0,0,0,0,0,0],"id":15,"left_children":[1,3,5,7,9,11,13,15,17,19,21,23,25,27,29,-1,-1,-1,-1,-1,-1,-1,-1,-1,-1,-1,-1,-1,-1,-1,-1],"loss_changes":[1.4142962E1,1.4475325E1,8.89541E0,1.02812195E1,7.632784E0,8.601816E0,7.492227E0,1.1205622E1,7.031012E0,1.3340771E1,5.2122536E0,7.9027386E0,8.774617E0,6.7239137E0,3.277689E0,0E0,0E0,0E0,0E0,0E0,0E0,0E0,0E0,0E0,0E0,0E0,0E0,0E0,0E0,0E0,0E0],"parents":[2147483647,0,0,1,1,2,2,3,3,4,4,5,5,6,6,7,7,8,8,9,9,10,10,11,11,12,12,13,13,14,14],"right_children":[2,4,6,8,10,12,14,16,18,20,22,24,26,28,30,-1,-1,-1,-1,-1,-1,-1,-1,-1,-1,-1,-1,-1,-1,-1,-1],"split_conditions":[2.6104946E-3,2.05E-1,6.4E-1,1.5763076E-2,4.6508983E-2,5.7019964E-2,9.916854E-3,1.3245758E0,2.5633988E-3,-6.970821E-3,-5.439545E-3,-9.9762E-3,9.321402E-2,-1.7346011E-2,1.5603356E-2,2.1088887E-3,2.082703E-2,-2.1863019E-3,3.3357915E-2,3.3079978E-2,6.0858005E-3,5.03999E-3,-1.4393975E-2,3.6976952E-3,-4.1348217E-3,-2.341997E-2,1.4550315E-2,6.410026E-2,2.7134197E-3,6.0245093E-2,6.0147187E-4],"split_indices":[7,4,4,1,1,10,7,12,7,8,8,2,1,2,7,0,0,0,0,0,0,0,0,0,0,0,0,0,0,0,0],"split_type":[0,0,0,0,0,0,0,0,0,0,0,0,0,0,0,0,0,0,0,0,0,0,0,0,0,0,0,0,0,0,0],"sum_hessian":[8.366406E3,5.431845E3,2.9345615E3,4.1700137E3,1.2618317E3,2.838715E3,9.584638E1,1.4158943E3,2.7541194E3,1.1251252E3,1.3670647E2,2.7290632E3,1.0965171E2,8.360973E1,1.2236648E1,1.3318019E3,8.4092415E1,2.741132E3,1.2987144E1,4.6875366E1,1.0782499E3,6.458302E1,7.212344E1,3.7219278E2,2.3568706E3,9.217244E1,1.7479275E1,3.7324035E0,7.987733E1,9.238302E0,2.9983456E0],"tree_param":{"num_deleted":"0","num_feature":"13","num_nodes":"31","size_leaf_vector":"1"}},{"base_weights":[3.7600278E-4,6.495351E-2,-1.8513266E-2,2.7840326E-2,2.1465011E-1,-6.04934E-1,-1.5531221E-2,5.7051018E-2,-2.1501717E-1,7.2651243E-1,1.7346439E-1,-3.183825E-1,-1.202637E0,-8.8505335E-3,-2.4057947E-1,1.3656433E-3,1.1196907E-2,1.3320113E-2,-1.4943565E-2,-4.8361137E-3,4.0584173E-2,1.0325783E-2,-2.1469926E-2,2.5688162E-2,-3.0839566E-2,-7.524815E-2,1.4736115E-3,-6.7703216E-3,1.7642158E-5,-7.0758685E-3,-4.122704E-2],"categories":[],"categories_nodes":[],"categories_segments":[],"categories_sizes":[],"default_left":[0,0,0,0,0,0,0,0,0,0,0,0,0,0,0,0,0,0,0,0,0,0,0,0,0,0,0,0,0,0,0],"id":16,"left_children":[1,3,5,7,9,11,13,15,17,19,21,23,25,27,29,-1,-1,-1,-1,-1,-1,-1,-1,-1,-1,-1,-1,-1,-1,-1,-1],"loss_changes":[1.02003975E1,1.0507881E1,1.1304517E1,1.0778318E1,7.796768E0,5.2189293E0,9.677362E0,6.720969E0,6.665802E0,2.0188723E0,7.0455256E0,6.1444683E0,3.858366E0,7.2837596E0,1.0618236E1,0E0,0E0,0E0,0E0,0E0,0E0,0E0,0E0,0E0,0E0,0E0,0E0,0E0,0E0,0E0,0E0],"parents":[2147483647,0,0,1,1,2,2,3,3,4,4,5,5,6,6,7,7,8,8,9,9,10,10,11,11,12,12,13,13,14,14],"right_children":[2,4,6,8,10,12,14,16,18,20,22,24,26,28,30,-1,-1,-1,-1,-1,-1,-1,-1,-1,-1,-1,-1,-1,-1,-1,-1],"split_conditions":[-9.545455E-3,7.3E-1,-3.593659E-2,2.3E-1,7.7E-1,4.30354E7,4.6038453E-2,-1.1325029E-2,-5.9137065E-3,1.00017E-2,1.619997E0,-6.7566335E-3,6.337338E8,-1.0662706E-2,6.5E-1,1.3656433E-3,1.1196907E-2,1.3320113E-2,-1.4943565E-2,-4.8361137E-3,4.0584173E-2,1.0325783E-2,-2.1469926E-2,2.5688162E-2,-3.0839566E-2,-7.524815E-2,1.4736115E-3,-6.7703216E-3,1.7642158E-5,-7.0758685E-3,-4.122704E-2],"split_indices":[2,3,0,5,3,11,6,2,8,5,5,8,11,0,3,0,0,0,0,0,0,0,0,0,0,0,0,0,0,0,0],"split_type":[0,0,0,0,0,0,0,0,0,0,0,0,0,0,0,0,0,0,0,0,0,0,0,0,0,0,0,0,0,0,0],"sum_hessian":[8.360216E3,1.8914387E3,6.4687773E3,1.5166201E3,3.7481863E2,3.1707066E1,6.4370703E3,1.3544706E3,1.6214949E2,2.6673727E1,3.481449E2,2.2468071E1,9.238993E0,6.2525005E3,1.8456978E2,1.1506044E3,2.0386624E2,2.3730736E1,1.3841876E2,2.4881804E0,2.4185547E1,3.3067355E2,1.7471361E1,5.7399406E0,1.672813E1,7.240836E0,1.998157E0,4.2293915E2,5.829561E3,1.5886292E2,2.5706863E1],"tree_param":{"num_deleted":"0","num_feature":"13","num_nodes":"31","size_leaf_vector":"1"}},{"base_weights":[6.35724E-4,2.6094846E-2,-5.7216905E-2,3.8529824E-2,-1.1798674E-1,5.177415E-1,-6.436874E-2,4.387388E-2,-3.730975E-1,-1.8928118E-1,6.0423426E-2,1.2467443E0,3.2495266E-1,-4.6165645E-2,-2.718566E-1,-3.3941169E-3,2.9429754E-3,-1.1935162E-2,-5.6825824E-2,-1.8516967E-2,2.8341217E-3,7.786998E-3,-2.9208655E-2,7.345084E-2,1.6215576E-2,4.5032334E-2,-9.6787255E-5,-3.9653294E-3,2.3029E-3,3.1794608E-2,-1.4898926E-2],"categories":[],"categories_nodes":[],"categories_segments":[],"categories_sizes":[],"default_left":[0,0,0,0,0,0,0,0,0,0,0,0,0,0,0,0,0,0,0,0,0,0,0,0,0,0,0,0,0,0,0],"id":17,"left_children":[1,3,5,7,9,11,13,15,17,19,21,23,25,27,29,-1,-1,-1,-1,-1,-1,-1,-1,-1,-1,-1,-1,-1,-1,-1,-1],"loss_changes":[1.2278881E1,1.0376517E1,1.05090475E1,1.1740826E1,5.8647285E0,4.0094013E0,9.49465E0,8.817242E0,6.7480183E0,1.4673987E1,8.210093E0,7.982273E-1,4.931055E0,7.0802827E0,4.9987507E0,0E0,0E0,0E0,0E0,0E0,0E0,0E0,0E0,0E0,0E0,0E0,0E0,0E0,0E0,0E0,0E0],"parents":[2147483647,0,0,1,1,2,2,3,3,4,4,5,5,6,6,7,7,8,8,9,9,10,10,11,11,12,12,13,13,14,14],"right_children":[2,4,6,8,10,12,14,16,18,20,22,24,26,28,30,-1,-1,-1,-1,-1,-1,-1,-1,-1,-1,-1,-1,-1,-1,-1,-1],"split_conditions":[2.6775448E-2,2.102658E-2,1.0576693E-2,2.4725714E0,6.303809E-3,4.125E-2,4.4E-1,-2.4055518E-2,1.1722732E-2,2.836579E-2,4.2823795E-2,4.4569704E-3,-5.793743E-4,2.9430747E-2,-2.3504328E-2,-3.3941169E-3,2.9429754E-3,-1.1935162E-2,-5.6825824E-2,-1.8516967E-2,2.8341217E-3,7.786998E-3,-2.9208655E-2,7.345084E-2,1.6215576E-2,4.5032334E-2,-9.6787255E-5,-3.9653294E-3,2.3029E-3,3.1794608E-2,-1.4898926E-2],"split_indices":[9,0,10,12,9,5,5,0,2,6,0,8,2,1,2,0,0,0,0,0,0,0,0,0,0,0,0,0,0,0,0],"split_type":[0,0,0,0,0,0,0,0,0,0,0,0,0,0,0,0,0,0,0,0,0,0,0,0,0,0,0,0,0,0,0],"sum_hessian":[8.33465E3,5.788057E3,2.546593E3,5.3288804E3,4.5917697E2,3.0410427E1,2.5161826E3,5.2614653E3,6.7414894E1,3.2803146E2,1.3114551E2,5.216835E0,2.5193592E1,2.314364E3,2.018187E2,6.2168463E2,4.639781E3,5.8439693E1,8.9752E0,1.8865416E2,1.3937732E2,1.1491187E2,1.6233635E1,3.72637E0,1.4904649E0,8.488683E0,1.670491E1,1.7026498E3,6.117141E2,4.9922595E0,1.9682645E2],"tree_param":{"num_deleted":"0","num_feature":"13","num_nodes":"31","size_leaf_vector":"1"}},{"base_weights":[1.490092E-3,1.9605428E-1,-6.238389E-3,-7.853951E-2,2.7317628E-1,1.0425726E-2,-8.2464576E-2,-1.0412102E0,1.052028E-1,5.822564E-1,1.5974101E-1,-3.3816262E-3,1.268447E-1,-2.17325E-1,-3.8706318E-2,-1.9741734E-2,-7.8357525E-2,-1.1576827E-2,2.6733125E-2,1.7456088E-2,4.470556E-2,2.7515043E-3,2.2668216E-2,5.0262188E-5,-2.3162473E-2,8.439291E-3,-1.1818727E-2,-8.8184485E-3,-3.357112E-2,7.945883E-3,-3.4392204E-3],"categories":[],"categories_nodes":[],"categories_segments":[],"categories_sizes":[],"default_left":[0,0,0,0,0,0,0,0,0,0,0,0,0,0,0,0,0,0,0,0,0,0,0,0,0,0,0,0,0,0,0],"id":18,"left_children":[1,3,5,7,9,11,13,15,17,19,21,23,25,27,29,-1,-1,-1,-1,-1,-1,-1,-1,-1,-1,-1,-1,-1,-1,-1,-1],"loss_changes":[1.2609519E1,6.806053E0,1.0246067E1,1.2672838E1,8.684284E0,1.0640892E1,8.530928E0,3.2823887E0,8.88035E0,4.5469513E0,5.6479945E0,1.19406395E1,1.0731996E1,6.4705067E0,6.51239E0,0E0,0E0,0E0,0E0,0E0,0E0,0E0,0E0,0E0,0E0,0E0,0E0,0E0,0E0,0E0,0E0],"parents":[2147483647,0,0,1,1,2,2,3,3,4,4,5,5,6,6,7,7,8,8,9,9,10,10,11,11,12,12,13,13,14,14],"right_children":[2,4,6,8,10,12,14,16,18,20,22,24,26,28,30,-1,-1,-1,-1,-1,-1,-1,-1,-1,-1,-1,-1,-1,-1,-1,-1],"split_conditions":[1.1769037E-2,-3.7688443E-3,4.3244008E-2,8.7930495E-3,-3.400204E-4,7.3E-1,7.587351E-1,-2.2869215E-3,-5.762188E-3,1.7737251E-3,9.362446E-3,2.4725714E0,3.3371963E-2,5.7019964E-2,-8.533625E-3,-1.9741734E-2,-7.8357525E-2,-1.1576827E-2,2.6733125E-2,1.7456088E-2,4.470556E-2,2.7515043E-3,2.2668216E-2,5.0262188E-5,-2.3162473E-2,8.439291E-3,-1.1818727E-2,-8.8184485E-3,-3.357112E-2,7.945883E-3,-3.4392204E-3],"split_indices":[10,2,9,1,2,3,12,0,0,7,6,12,6,10,0,0,0,0,0,0,0,0,0,0,0,0,0,0,0,0,0],"split_type":[0,0,0,0,0,0,0,0,0,0,0,0,0,0,0,0,0,0,0,0,0,0,0,0,0,0,0,0,0,0,0],"sum_hessian":[8.383928E3,3.1937244E2,8.0645557E3,7.002591E1,2.4934651E2,6.618518E3,1.4460377E3,1.0475505E1,5.9550404E1,6.583397E1,1.8351256E2,5.9176523E3,7.008658E2,3.5328064E2,1.0927571E3,5.485097E0,4.9904084E0,3.363672E1,2.5913685E1,3.888445E1,2.694952E1,1.361475E2,4.736504E1,5.862723E3,5.4929134E1,6.287939E2,7.207186E1,3.2532706E2,2.795357E1,1.437809E2,9.4897626E2],"tree_param":{"num_deleted":"0","num_feature":"13","num_nodes":"31","size_leaf_vector":"1"}},{"base_weights":[-1.1136843E-4,4.3638203E-2,-2.6976336E-2,-1.8102233E-1,6.389714E-2,-1.298639E-2,-1.9339217E-1,-5.9482146E-2,-3.9144322E-1,7.783383E-2,-1.673051E-1,-4.6028756E-3,-2.3046587E-1,-1.7613155E-1,-1.2157817E0,-1.21755935E-2,7.514653E-3,-3.0186731E-2,-2.5049846E-3,3.2601373E-3,1.8353319E-2,-4.2967286E-2,-5.333524E-3,-5.473734E-4,1.8126637E-2,-1.2899339E-3,-2.4710786E-2,-1.0222316E-2,2.291475E-2,-7.8647576E-2,-7.823318E-3],"categories":[],"categories_nodes":[],"categories_segments":[],"categories_sizes":[],"default_left":[0,0,0,0,0,0,0,0,0,0,0,0,0,0,0,0,0,0,0,0,0,0,0,0,0,0,0,0,0,0,0],"id":19,"left_children":[1,3,5,7,9,11,13,15,17,19,21,23,25,27,29,-1,-1,-1,-1,-1,-1,-1,-1,-1,-1,-1,-1,-1,-1,-1,-1],"loss_changes":[9.82047E0,1.4479545E1,1.2049576E1,6.707988E0,9.410895E0,8.707325E0,6.868782E0,6.522807E0,6.9398212E0,1.0028088E1,6.879547E0,1.0718991E1,9.556211E0,7.204976E0,2.2109938E0,0E0,0E0,0E0,0E0,0E0,0E0,0E0,0E0,0E0,0E0,0E0,0E0,0E0,0E0,0E0,0E0],"parents":[2147483647,0,0,1,1,2,2,3,3,4,4,5,5,6,6,7,7,8,8,9,9,10,10,11,11,12,12,13,13,14,14],"right_children":[2,4,6,8,10,12,14,16,18,20,22,24,26,28,30,-1,-1,-1,-1,-1,-1,-1,-1,-1,-1,-1,-1,-1,-1,-1,-1],"split_conditions":[5.75E-2,1.25E-3,7.984347E-3,2.765153E-3,7.756941E-3,6.2295083E-2,1.34E0,9.193463E-1,4.602105E-3,9.916854E-3,2.75001E-3,5.4340154E-2,-4.018687E-3,6.4E-1,1.2802931E0,-1.21755935E-2,7.514653E-3,-3.0186731E-2,-2.5049846E-3,3.2601373E-3,1.8353319E-2,-4.2967286E-2,-5.333524E-3,-5.473734E-4,1.8126637E-2,-1.2899339E-3,-2.4710786E-2,-1.0222316E-2,2.291475E-2,-7.8647576E-2,-7.823318E-3],"split_indices":[5,4,7,7,8,1,5,12,8,7,3,1,8,4,12,0,0,0,0,0,0,0,0,0,0,0,0,0,0,0,0],"split_type":[0,0,0,0,0,0,0,0,0,0,0,0,0,0,0,0,0,0,0,0,0,0,0,0,0,0,0,0,0,0,0],"sum_hessian":[8.353492E3,3.177809E3,5.175683E3,2.6220154E2,2.9156074E3,4.7753184E3,4.0036484E2,1.670153E2,9.5186226E1,2.7504744E3,1.6513313E2,4.5990527E3,1.7626555E2,3.9487067E2,5.494181E0,8.88814E1,7.813391E1,5.8213108E1,3.6973114E1,2.6365586E3,1.1391585E2,1.2241763E1,1.5289136E2,4.521879E3,7.717391E1,9.9867325E1,7.6398224E1,3.786491E2,1.6221556E1,3.746198E0,1.7479832E0],"tree_param":{"num_deleted":"0","num_feature":"13","num_nodes":"31","size_leaf_vector":"1"}},{"base_weights":[7.049516E-5,-2.0322748E-2,8.829714E-2,2.6651187E-2,-5.3377964E-2,1.9230354E-1,2.1333171E-2,1.7708936E-1,1.0660132E-2,-3.844562E-2,-2.237418E-1,6.051761E-1,1.3275537E-1,-2.4596733E-1,6.647092E-2,3.608868E-3,2.419685E-2,-8.705608E-3,1.2305247E-3,-3.787217E-3,1.0500964E-3,-2.9189188E-2,-7.059241E-3,4.9976073E-2,1.3696841E-2,-7.193262E-3,9.414883E-3,4.1561965E-2,-1.4839167E-2,5.5964985E-3,-8.21374E-3],"categories":[],"categories_nodes":[],"categories_segments":[],"categories_sizes":[],"default_left":[0,0,0,0,0,0,0,0,0,0,0,0,0,0,0,0,0,0,0,0,0,0,0,0,0,0,0,0,0,0,0],"id":20,"left_children":[1,3,5,7,9,11,13,15,17,19,21,23,25,27,29,-1,-1,-1,-1,-1,-1,-1,-1,-1,-1,-1,-1,-1,-1,-1,-1],"loss_changes":[1.5009704E1,1.0522822E1,1.0904372E1,6.732638E0,1.0110153E1,1.4998901E1,1.1525789E1,8.622002E0,6.5296574E0,8.113142E0,9.439156E0,9.787895E0,8.282279E0,7.8021374E0,8.587241E0,0E0,0E0,0E0,0E0,0E0,0E0,0E0,0E0,0E0,0E0,0E0,0E0,0E0,0E0,0E0,0E0],"parents":[2147483647,0,0,1,1,2,2,3,3,4,4,5,5,6,6,7,7,8,8,9,9,10,10,11,11,12,12,13,13,14,14],"right_children":[2,4,6,8,10,12,14,16,18,20,22,24,26,28,30,-1,-1,-1,-1,-1,-1,-1,-1,-1,-1,-1,-1,-1,-1,-1,-1],"split_conditions":[2.4E-1,5.334E-2,-8.426655E-3,-2.4311041E-2,1.8348623E-2,1.5486053E-2,6.381346E-4,-2.6189664E-2,-2.0095296E-2,2.2E-1,1.5598412E-2,9.9715513E-1,1.875219E-2,1.574999E-2,5.876511E-2,3.608868E-3,2.419685E-2,-8.705608E-3,1.2305247E-3,-3.787217E-3,1.0500964E-3,-2.9189188E-2,-7.059241E-3,4.9976073E-2,1.3696841E-2,-7.193262E-3,9.414883E-3,4.1561965E-2,-1.4839167E-2,5.5964985E-3,-8.21374E-3],"split_indices":[4,5,9,2,2,10,9,0,0,3,0,12,10,3,9,0,0,0,0,0,0,0,0,0,0,0,0,0,0,0,0],"split_type":[0,0,0,0,0,0,0,0,0,0,0,0,0,0,0,0,0,0,0,0,0,0,0,0,0,0,0,0,0,0,0],"sum_hessian":[8.340307E3,6.7750503E3,1.5652566E3,2.7984448E3,3.9766057E3,6.1233105E2,9.529256E2,2.679156E2,2.5305293E3,3.6572725E3,3.1933322E2,7.602876E1,5.3630225E2,1.3702577E2,8.1589984E2,2.0057402E2,6.734156E1,1.768376E2,2.3536917E3,2.2471108E3,1.4101616E3,5.8432045E1,2.6090115E2,3.3787144E1,4.2241623E1,8.941137E1,4.468909E2,5.480989E0,1.3154478E2,6.820455E2,1.3385437E2],"tree_param":{"num_deleted":"0","num_feature":"13","num_nodes":"31","size_leaf_vector":"1"}},{"base_weights":[-8.452357E-3,4.1040525E-2,-3.7781425E-2,-1.2878519E-2,1.0422727E-1,6.4015277E-3,-8.548964E-2,5.1434472E-2,-1.07235186E-1,5.0032854E-1,8.361496E-2,1.11507714E-1,-2.978118E-2,-5.353599E-2,-1.826536E-1,-4.49633E-3,6.2385756E-3,4.057495E-3,-8.477826E-3,-2.0204443E-2,2.9875416E-2,1.262257E-2,2.1062153E-3,4.0825326E-2,4.8229075E-3,-6.360262E-2,-1.3353094E-3,-3.5615542E-3,7.1715484E-3,-8.081927E-3,-2.8379826E-2],"categories":[],"categories_nodes":[],"categories_segments":[],"categories_sizes":[],"default_left":[0,0,0,0,0,0,0,0,0,0,0,0,0,0,0,0,0,0,0,0,0,0,0,0,0,0,0,0,0,0,0],"id":21,"left_children":[1,3,5,7,9,11,13,15,17,19,21,23,25,27,29,-1,-1,-1,-1,-1,-1,-1,-1,-1,-1,-1,-1,-1,-1,-1,-1],"loss_changes":[1.2138827E1,1.0602819E1,1.1068489E1,1.0199579E1,1.1656613E1,1.0374207E1,7.828804E0,1.0374605E1,8.011564E0,6.4529667E0,9.538482E0,7.333027E0,7.7184258E0,6.636973E0,4.9593544E0,0E0,0E0,0E0,0E0,0E0,0E0,0E0,0E0,0E0,0E0,0E0,0E0,0E0,0E0,0E0,0E0],"parents":[2147483647,0,0,1,1,2,2,3,3,4,4,5,5,6,6,7,7,8,8,9,9,10,10,11,11,12,12,13,13,14,14],"right_children":[2,4,6,8,10,12,14,16,18,20,22,24,26,28,30,-1,-1,-1,-1,-1,-1,-1,-1,-1,-1,-1,-1,-1,-1,-1,-1],"split_conditions":[5.334E-2,6E-2,2.073703E7,2.9076966E-2,-2.6996626E-2,1.1892637E-2,7.09573E-3,1.3066056E-2,2.5E-3,6.29934E6,1.0956427E-2,-4.972776E-3,1.032826E-2,6.60001E-1,1.8863791E0,-4.49633E-3,6.2385756E-3,4.057495E-3,-8.477826E-3,-2.0204443E-2,2.9875416E-2,1.262257E-2,2.1062153E-3,4.0825326E-2,4.8229075E-3,-6.360262E-2,-1.3353094E-3,-3.5615542E-3,7.1715484E-3,-8.081927E-3,-2.8379826E-2],"split_indices":[5,4,11,10,2,6,2,6,5,11,6,7,10,3,12,0,0,0,0,0,0,0,0,0,0,0,0,0,0,0,0],"split_type":[0,0,0,0,0,0,0,0,0,0,0,0,0,0,0,0,0,0,0,0,0,0,0,0,0,0,0,0,0,0,0],"sum_hessian":[8.360425E3,3.110704E3,5.249721E3,1.6788715E3,1.4318326E3,2.7260088E3,2.5237122E3,9.986512E2,6.8022034E2,6.967292E1,1.3621597E3,6.975711E2,2.0284376E3,1.9003185E3,6.2339374E2,3.410441E2,6.5760706E2,1.6901605E2,5.1120425E2,6.453584E0,6.3219337E1,2.6770654E2,1.0944531E3,1.3466709E1,6.8410443E2,3.9896154E0,2.024448E3,1.7442565E3,1.5606194E2,5.924692E2,3.0924597E1],"tree_param":{"num_deleted":"0","num_feature":"13","num_nodes":"31","size_leaf_vector":"1"}},{"base_weights":[4.6422346E-3,3.149522E-2,-4.9118455E-2,6.0463633E-2,-3.2631375E-2,-1.6728267E-1,-1.6441789E-2,4.8953325E-2,2.3965111E-1,7.784905E-2,-1.0316965E-1,-2.296685E-1,1.5878212E-1,-2.8136942E-1,4.4835117E-3,1.3304929E-3,6.932072E-3,2.0745551E-2,4.0792045E-3,1.0237391E-2,-2.7469553E-3,-5.1145848E-2,-4.739467E-3,1.7269768E-3,-1.4949505E-2,-2.2654872E-2,1.5610521E-2,-2.087374E-3,-2.4586089E-2,6.176689E-3,-1.4191087E-3],"categories":[],"categories_nodes":[],"categories_segments":[],"categories_sizes":[],"default_left":[0,0,0,0,0,0,0,0,0,0,0,0,0,0,0,0,0,0,0,0,0,0,0,0,0,0,0,0,0,0,0],"id":22,"left_children":[1,3,5,7,9,11,13,15,17,19,21,23,25,27,29,-1,-1,-1,-1,-1,-1,-1,-1,-1,-1,-1,-1,-1,-1,-1,-1],"loss_changes":[1.208855E1,1.0375528E1,1.0767596E1,7.9226084E0,1.3554794E1,1.2326019E1,1.2120969E1,7.2425785E0,6.3915606E0,1.1435001E1,8.083762E0,9.305956E0,9.3059025E0,8.046968E0,7.935124E0,0E0,0E0,0E0,0E0,0E0,0E0,0E0,0E0,0E0,0E0,0E0,0E0,0E0,0E0,0E0,0E0],"parents":[2147483647,0,0,1,1,2,2,3,3,4,4,5,5,6,6,7,7,8,8,9,9,10,10,11,11,12,12,13,13,14,14],"right_children":[2,4,6,8,10,12,14,16,18,20,22,24,26,28,30,-1,-1,-1,-1,-1,-1,-1,-1,-1,-1,-1,-1,-1,-1,-1,-1],"split_conditions":[2.871522E-3,2.6887871E-2,1.3276015E-2,4.9E-1,-3.8332394E-3,1.0017252E8,1.50001E-3,1.1146835E0,6.7999E-1,-1.2031061E-2,9.6428E5,-2.8463188E-3,1.2603856E-3,9.0241367E-1,7.59207E6,1.3304929E-3,6.932072E-3,2.0745551E-2,4.0792045E-3,1.0237391E-2,-2.7469553E-3,-5.1145848E-2,-4.739467E-3,1.7269768E-3,-1.4949505E-2,-2.2654872E-2,1.5610521E-2,-2.087374E-3,-2.4586089E-2,6.176689E-3,-1.4191087E-3],"split_indices":[7,1,1,5,8,11,4,12,5,2,11,2,8,12,11,0,0,0,0,0,0,0,0,0,0,0,0,0,0,0,0],"split_type":[0,0,0,0,0,0,0,0,0,0,0,0,0,0,0,0,0,0,0,0,0,0,0,0,0,0,0,0,0,0,0],"sum_hessian":[8.371617E3,5.583248E3,2.7883687E3,3.8459458E3,1.7373024E3,6.03152E2,2.1852166E3,3.6150051E3,2.3094073E2,6.769411E2,1.0603612E3,5.0653293E2,9.661906E1,1.5905336E2,2.0261632E3,2.89507E3,7.19935E2,1.08743904E2,1.2219683E2,3.4586954E2,3.3107156E2,8.481181E0,1.0518801E3,1.05383316E2,4.0114963E2,1.8978542E1,7.764052E1,7.491395E1,8.413941E1,4.3774585E2,1.5884174E3],"tree_param":{"num_deleted":"0","num_feature":"13","num_nodes":"31","size_leaf_vector":"1"}},{"base_weights":[-5.522953E-3,6.890772E-2,-2.6560703E-2,3.722219E-2,1.896051E-1,6.181154E-2,-4.726009E-2,5.7161532E-2,-2.695328E-1,2.710784E-1,-2.6860097E-1,4.389972E-1,3.9328407E-2,-7.901651E-1,-4.4373445E-2,1.4580293E-3,1.158018E-2,5.6143524E-3,-2.6576066E-2,2.3674034E-2,7.02433E-3,-1.7630814E-2,3.2471146E-2,-2.6503831E-2,2.6103789E-2,-4.1134106E-3,5.4885806E-3,-1.7930904E-2,-6.035551E-2,-8.995077E-3,-1.5842244E-3],"categories":[],"categories_nodes":[],"categories_segments":[],"categories_sizes":[],"default_left":[0,0,0,0,0,0,0,0,0,0,0,0,0,0,0,0,0,0,0,0,0,0,0,0,0,0,0,0,0,0,0],"id":23,"left_children":[1,3,5,7,9,11,13,15,17,19,21,23,25,27,29,-1,-1,-1,-1,-1,-1,-1,-1,-1,-1,-1,-1,-1,-1,-1,-1],"loss_changes":[1.3103796E1,7.045539E0,1.1937272E1,8.957188E0,1.4378692E1,1.0486259E1,1.1302056E1,6.7022276E0,9.002664E0,8.54656E0,4.7297444E0,5.878336E0,1.00308485E1,3.2381926E0,9.052343E0,0E0,0E0,0E0,0E0,0E0,0E0,0E0,0E0,0E0,0E0,0E0,0E0,0E0,0E0,0E0,0E0],"parents":[2147483647,0,0,1,1,2,2,3,3,4,4,5,5,6,6,7,7,8,8,9,9,10,10,11,11,12,12,13,13,14,14],"right_children":[2,4,6,8,10,12,14,16,18,20,22,24,26,28,30,-1,-1,-1,-1,-1,-1,-1,-1,-1,-1,-1,-1,-1,-1,-1,-1],"split_conditions":[-9.9762E-3,7.1E-1,5.559795E6,-9.414719E-4,1.8406214E0,-6.228663E-3,-4.1737124E-2,4.015369E-3,1.8108756E7,1.30001E-1,2.2967964E-2,-9.529534E-3,6.303809E-3,-5.7581846E-2,5.7985085E-1,1.4580293E-3,1.158018E-2,5.6143524E-3,-2.6576066E-2,2.3674034E-2,7.02433E-3,-1.7630814E-2,3.2471146E-2,-2.6503831E-2,2.6103789E-2,-4.1134106E-3,5.4885806E-3,-1.7930904E-2,-6.035551E-2,-8.995077E-3,-1.5842244E-3],"split_indices":[2,3,11,0,12,7,0,8,11,5,0,8,9,9,12,0,0,0,0,0,0,0,0,0,0,0,0,0,0,0,0],"split_type":[0,0,0,0,0,0,0,0,0,0,0,0,0,0,0,0,0,0,0,0,0,0,0,0,0,0,0,0,0,0,0],"sum_hessian":[8.366298E3,1.8431245E3,6.523173E3,1.4609132E3,3.822113E2,1.2375773E3,5.2855957E3,1.3725125E3,8.840084E1,3.2485706E2,5.7354225E1,6.857703E1,1.1690002E3,1.9402685E1,5.266193E3,1.1836788E3,1.888336E2,3.6205967E1,5.219487E1,1.2637097E2,1.984861E2,5.3109653E1,4.24457E0,4.9900403E0,6.3586983E1,4.2874594E2,7.402543E2,1.0448438E1,8.954247E0,4.4971396E2,4.816479E3],"tree_param":{"num_deleted":"0","num_feature":"13","num_nodes":"31","size_leaf_vector":"1"}},{"base_weights":[-6.2273927E-3,2.6603407E-1,-9.55564E-3,4.169754E-1,-2.1201766E-1,4.5164492E-2,-2.5114136E-2,2.1652257E-1,8.545743E-1,6.3636824E-2,-3.9667976E-1,7.809018E-2,-1.2713714E-1,-5.9290147E-1,-2.0642199E-2,1.9223377E-2,-2.2211118E-2,5.9065055E-2,1.1620752E-2,1.282461E-2,-3.0850396E-2,1.714175E-2,2.6367938E-3,1.7245537E-2,-8.847329E-3,-9.39327E-4,-4.355371E-2,-7.4935117E-4,-1.1033182E-2],"categories":[],"categories_nodes":[],"categories_segments":[],"categories_sizes":[],"default_left":[0,0,0,0,0,0,0,0,0,0,0,0,0,0,0,0,0,0,0,0,0,0,0,0,0,0,0,0,0],"id":24,"left_children":[1,3,5,7,9,11,13,15,17,-1,19,21,23,25,27,-1,-1,-1,-1,-1,-1,-1,-1,-1,-1,-1,-1,-1,-1],"loss_changes":[7.587199E0,7.384978E0,7.04195E0,6.5859833E0,7.3398266E0,1.0398635E1,1.6339233E1,6.194127E0,4.586027E0,0E0,3.4587102E0,1.0305865E1,6.977696E0,8.014832E0,7.2254105E0,0E0,0E0,0E0,0E0,0E0,0E0,0E0,0E0,0E0,0E0,0E0,0E0,0E0,0E0],"parents":[2147483647,0,0,1,1,2,2,3,3,4,4,5,5,6,6,7,7,8,8,10,10,11,11,12,12,13,13,14,14],"right_children":[2,4,6,8,10,12,14,16,18,-1,20,22,24,26,28,-1,-1,-1,-1,-1,-1,-1,-1,-1,-1,-1,-1,-1,-1],"split_conditions":[6.224896E-3,5.7083704E-3,-9.9762E-3,1.6406212E-3,-5.978321E-4,3.4385983E-2,-3.071165E-2,1.9610357E-3,3.753853E-3,6.3636824E-2,1.225E-1,-1.0158366E-2,-6.8409875E-2,-8.645406E-3,4.722404E-2,1.9223377E-2,-2.2211118E-2,5.9065055E-2,1.1620752E-2,1.282461E-2,-3.0850396E-2,1.714175E-2,2.6367938E-3,1.7245537E-2,-8.847329E-3,-9.39327E-4,-4.355371E-2,-7.4935117E-4,-1.1033182E-2],"split_indices":[6,0,2,0,8,6,0,8,2,0,3,7,2,7,6,0,0,0,0,0,0,0,0,0,0,0,0,0,0],"split_type":[0,0,0,0,0,0,0,0,0,0,0,0,0,0,0,0,0,0,0,0,0,0,0,0,0,0,0,0,0],"sum_hessian":[8.369171E3,1.00119705E2,8.269051E3,7.619078E1,2.3928925E1,1.8302063E3,6.438844E3,5.3279575E1,2.2911207E1,1.9951231E0,2.1933802E1,1.5370359E3,2.931705E2,4.9288292E1,6.389556E3,4.2815155E1,1.046442E1,1.4433006E1,8.478201E0,5.491092E0,1.6442709E1,1.3324065E2,1.4037952E3,2.74166E1,2.6575388E2,1.6435316E1,3.2852978E1,6.2149175E3,1.7463849E2],"tree_param":{"num_deleted":"0","num_feature":"13","num_nodes":"29","size_leaf_vector":"1"}},{"base_weights":[4.831687E-3,-2.2540301E-2,5.1162083E-2,1.7769592E-2,-5.676119E-2,5.499292E-1,4.37524E-2,-1.6381404E-1,3.606509E-2,5.2106345E-1,-6.226952E-2,7.3645055E-1,-8.629525E-2,1.6105013E-1,1.6927624E-2,-4.13108E-3,-2.4776077E-2,-6.448095E-3,2.7814186E-3,3.1284105E-2,-1.7970687E-2,-2.7153355E-3,-2.2209007E-2,1.063784E-2,4.8288446E-2,-3.0752858E-2,4.66101E-2,2.0286253E-2,5.625448E-3,7.568102E-3,-5.699336E-4],"categories":[],"categories_nodes":[],"categories_segments":[],"categories_sizes":[],"default_left":[0,0,0,0,0,0,0,0,0,0,0,0,0,0,0,0,0,0,0,0,0,0,0,0,0,0,0,0,0,0,0],"id":25,"left_children":[1,3,5,7,9,11,13,15,17,19,21,23,25,27,29,-1,-1,-1,-1,-1,-1,-1,-1,-1,-1,-1,-1,-1,-1,-1,-1],"loss_changes":[1.0583749E1,7.2381105E0,1.1430671E1,8.011172E0,9.064578E0,5.4375296E0,9.610371E0,5.9041367E0,7.0772343E0,2.703052E0,8.526941E0,4.012623E0,6.584327E0,6.7066545E0,9.474795E0,0E0,0E0,0E0,0E0,0E0,0E0,0E0,0E0,0E0,0E0,0E0,0E0,0E0,0E0,0E0,0E0],"parents":[2147483647,0,0,1,1,2,2,3,3,4,4,5,5,6,6,7,7,8,8,9,9,10,10,11,11,12,12,13,13,14,14],"right_children":[2,4,6,8,10,12,14,16,18,20,22,24,26,28,30,-1,-1,-1,-1,-1,-1,-1,-1,-1,-1,-1,-1,-1,-1,-1,-1],"split_conditions":[1.2334E-1,5.9999E-2,-1.2874424E-1,5.687946E-1,9.959144E-3,8.6E-1,1.1099212E-2,3.595208E-2,1.0290121E-2,8.317387E-3,6.3825E-2,1.225E-1,1.44E0,-1.2158039E-2,-1.0448678E-2,-4.13108E-3,-2.4776077E-2,-6.448095E-3,2.7814186E-3,3.1284105E-2,-1.7970687E-2,-2.7153355E-3,-2.2209007E-2,1.063784E-2,4.8288446E-2,-3.0752858E-2,4.66101E-2,2.0286253E-2,5.625448E-3,7.568102E-3,-5.699336E-4],"split_indices":[4,5,9,12,10,3,6,6,6,0,10,3,3,9,2,0,0,0,0,0,0,0,0,0,0,0,0,0,0,0,0],"split_type":[0,0,0,0,0,0,0,0,0,0,0,0,0,0,0,0,0,0,0,0,0,0,0,0,0,0,0,0,0,0,0],"sum_hessian":[8.343875E3,5.245405E3,3.0984707E3,2.408654E3,2.8367507E3,4.428525E1,3.0541855E3,2.1974284E2,2.1889111E3,2.5903221E1,2.8108474E3,3.41237E1,1.01615505E1,5.675284E2,2.4866572E3,1.7753618E2,4.220667E1,2.3139291E2,1.9575183E3,2.341091E1,2.492311E0,2.7545574E3,5.629017E1,1.0978929E1,2.3144772E1,6.9496765E0,3.2118735E0,9.27347E1,4.7479367E2,4.3201306E2,2.054644E3],"tree_param":{"num_deleted":"0","num_feature":"13","num_nodes":"31","size_leaf_vector":"1"}},{"base_weights":[7.999673E-3,2.6248312E-1,3.9683185E-3,-2.763462E-1,3.4022084E-1,-9.253396E-3,8.324894E-2,-1.1252452E0,3.221093E-1,-5.425569E-1,3.939853E-1,1.98137E-3,-1.3320531E-1,1.5194555E-1,-5.0601056E-3,-7.7952676E-2,1.6211687E-2,-2.6604822E-2,3.0550707E-2,1.4877686E-2,-5.775259E-2,4.8425604E-2,1.3557263E-2,-1.5980266E-2,3.4154192E-4,2.4507899E-2,-7.646471E-3,2.7075192E-2,6.087E-3,4.650134E-3,-5.821688E-3],"categories":[],"categories_nodes":[],"categories_segments":[],"categories_sizes":[],"default_left":[0,0,0,0,0,0,0,0,0,0,0,0,0,0,0,0,0,0,0,0,0,0,0,0,0,0,0,0,0,0,0],"id":26,"left_children":[1,3,5,7,9,11,13,15,17,19,21,23,25,27,29,-1,-1,-1,-1,-1,-1,-1,-1,-1,-1,-1,-1,-1,-1,-1,-1],"loss_changes":[8.554484E0,5.540721E0,8.607118E0,8.971725E0,5.6285E0,9.800831E0,7.120714E0,5.051444E0,2.9698648E0,3.9302185E0,7.3676414E0,1.0067137E1,7.266362E0,7.7020283E0,5.6298494E0,0E0,0E0,0E0,0E0,0E0,0E0,0E0,0E0,0E0,0E0,0E0,0E0,0E0,0E0,0E0,0E0],"parents":[2147483647,0,0,1,1,2,2,3,3,4,4,5,5,6,6,7,7,8,8,9,9,10,10,11,11,12,12,13,13,14,14],"right_children":[2,4,6,8,10,12,14,16,18,20,22,24,26,28,30,-1,-1,-1,-1,-1,-1,-1,-1,-1,-1,-1,-1,-1,-1,-1,-1],"split_conditions":[1.0576693E-2,1.786E-2,2.9E-1,1.0790239E7,1.4E-2,4.488032E-2,1.0188425E0,8.126206E-3,-4.17845E-3,6.9625764E-3,5.97E-2,4.0537333E-1,-8.807645E-2,-7.691028E-3,4.5E-1,-7.7952676E-2,1.6211687E-2,-2.6604822E-2,3.0550707E-2,1.4877686E-2,-5.775259E-2,4.8425604E-2,1.3557263E-2,-1.5980266E-2,3.4154192E-4,2.4507899E-2,-7.646471E-3,2.7075192E-2,6.087E-3,4.650134E-3,-5.821688E-3],"split_indices":[10,4,4,11,3,10,12,6,0,1,3,12,0,7,3,0,0,0,0,0,0,0,0,0,0,0,0,0,0,0,0],"split_type":[0,0,0,0,0,0,0,0,0,0,0,0,0,0,0,0,0,0,0,0,0,0,0,0,0,0,0,0,0,0,0],"sum_hessian":[8.338428E3,1.2903209E2,8.2093955E3,1.5946445E1,1.1308564E2,7.036752E3,1.1726434E3,6.229606E0,9.716839E0,5.9700413E0,1.071156E2,6.452861E3,5.8389105E2,6.5915704E2,5.134863E2,4.736457E0,1.493149E0,2.2430463E0,7.473793E0,2.734095E0,3.2359464E0,1.7655579E1,8.9460014E1,9.489816E1,6.357963E3,1.7176973E1,5.6671405E2,4.6213852E1,6.129432E2,2.7314835E2,2.4033798E2],"tree_param":{"num_deleted":"0","num_feature":"13","num_nodes":"31","size_leaf_vector":"1"}},{"base_weights":[9.914077E-4,5.5035703E-2,-1.5952671E-2,1.1959022E-1,1.1583681E-2,3.3802472E-2,-4.4058945E-2,1.3978033E-1,-4.1940188E-1,-2.2319617E-2,2.2173776E-1,-1.7279835E-2,7.091688E-2,-3.440082E-2,-3.9752403E-1,4.385251E-3,1.8548375E-2,1.1198407E-2,-3.468369E-2,3.1170086E-3,-7.401985E-3,-1.7498037E-2,1.5747337E-2,-2.5924355E-2,5.18215E-4,1.3078414E-2,2.0638704E-3,-8.681368E-5,-4.44813E-3,4.853748E-2,-2.3311485E-2],"categories":[],"categories_nodes":[],"categories_segments":[],"categories_sizes":[],"default_left":[0,0,0,0,0,0,0,0,0,0,0,0,0,0,0,0,0,0,0,0,0,0,0,0,0,0,0,0,0,0,0],"id":27,"left_children":[1,3,5,7,9,11,13,15,17,19,21,23,25,27,29,-1,-1,-1,-1,-1,-1,-1,-1,-1,-1,-1,-1,-1,-1,-1,-1],"loss_changes":[7.6511273E0,5.5926356E0,8.896871E0,8.7885475E0,8.5055E0,4.355586E0,1.3864253E1,9.285728E0,5.3105993E0,1.09532995E1,8.946746E0,1.3407785E1,7.507229E0,7.054296E0,1.0608271E1,0E0,0E0,0E0,0E0,0E0,0E0,0E0,0E0,0E0,0E0,0E0,0E0,0E0,0E0,0E0,0E0],"parents":[2147483647,0,0,1,1,2,2,3,3,4,4,5,5,6,6,7,7,8,8,9,9,10,10,11,11,12,12,13,13,14,14],"right_children":[2,4,6,8,10,12,14,16,18,20,22,24,26,28,30,-1,-1,-1,-1,-1,-1,-1,-1,-1,-1,-1,-1,-1,-1,-1,-1],"split_conditions":[7.89891E6,2.901083E-4,4.333E-2,3.0385429E-2,1.4218009E-2,3.603174E7,3.4112148E-2,3.8982993E-3,-4.5036446E-2,3.0291579E-3,1.622574E-2,-8.970702E-3,-2E-2,2.0054148E-3,-1.8989112E-2,4.385251E-3,1.8548375E-2,1.1198407E-2,-3.468369E-2,3.1170086E-3,-7.401985E-3,-1.7498037E-2,1.5747337E-2,-2.5924355E-2,5.18215E-4,1.3078414E-2,2.0638704E-3,-8.681368E-5,-4.44813E-3,4.853748E-2,-2.3311485E-2],"split_indices":[11,8,5,0,2,11,2,9,9,0,10,8,2,7,7,0,0,0,0,0,0,0,0,0,0,0,0,0,0,0,0],"split_type":[0,0,0,0,0,0,0,0,0,0,0,0,0,0,0,0,0,0,0,0,0,0,0,0,0,0,0,0,0,0,0],"sum_hessian":[8.353256E3,1.993286E3,6.3599697E3,8.012123E2,1.1920736E3,2.295737E3,4.0642327E3,7.7299725E2,2.8215044E1,1.0272461E3,1.648276E2,9.663031E2,1.329434E3,3.957203E3,1.0702978E2,6.320143E2,1.4098294E2,8.487949E0,1.9727095E1,6.1416925E2,4.1307684E2,2.2719944E1,1.4210767E2,4.958249E1,9.167206E2,1.7781853E2,1.1516155E3,2.4759534E3,1.4812494E3,4.489631E0,1.02540146E2],"tree_param":{"num_deleted":"0","num_feature":"13","num_nodes":"31","size_leaf_vector":"1"}},{"base_weights":[3.7058778E-3,3.1023776E-2,-3.5051245E-2,1.6536985E-2,1.6689022E-1,-2.1363738E-1,-2.2711782E-2,3.5887554E-1,1.1594845E-2,2.3601428E-1,-3.3609673E-1,-4.276873E-1,-5.9257764E-2,7.913994E-3,-8.6666465E-2,2.450731E-2,-2.2877444E-2,1.1731626E-3,-5.7101166E-3,1.2988818E-2,-3.2055046E-2,-3.9960723E-2,-5.6910343E-3,5.8738426E-3,-2.9633611E-2,4.636909E-3,-2.8883863E-2,-1.410829E-2,1.2068619E-3,1.5023751E-3,-8.145953E-3],"categories":[],"categories_nodes":[],"categories_segments":[],"categories_sizes":[],"default_left":[0,0,0,0,0,0,0,0,0,0,0,0,0,0,0,0,0,0,0,0,0,0,0,0,0,0,0,0,0,0,0],"id":28,"left_children":[1,3,5,7,9,11,13,15,17,19,21,23,25,27,29,-1,-1,-1,-1,-1,-1,-1,-1,-1,-1,-1,-1,-1,-1,-1,-1],"loss_changes":[8.825286E0,9.620499E0,7.58948E0,7.472663E0,1.6454338E1,7.3308067E0,6.3166466E0,6.9607553E0,6.508285E0,8.808842E0,5.8092203E0,8.444983E0,1.0336107E1,1.0272509E1,9.298361E0,0E0,0E0,0E0,0E0,0E0,0E0,0E0,0E0,0E0,0E0,0E0,0E0,0E0,0E0,0E0,0E0],"parents":[2147483647,0,0,1,1,2,2,3,3,4,4,5,5,6,6,7,7,8,8,9,9,10,10,11,11,12,12,13,13,14,14],"right_children":[2,4,6,8,10,12,14,16,18,20,22,24,26,28,30,-1,-1,-1,-1,-1,-1,-1,-1,-1,-1,-1,-1,-1,-1,-1,-1],"split_conditions":[3.617949E-3,7.1E-1,4.63312E-3,6.224896E-3,1.8863791E0,7.834927E-1,3.5E-1,2.3667223E-3,3.7E-1,2.22E0,2.1250346E0,-9.825398E-3,2.3013422E-2,-6.26759E-2,4.766563E-4,2.450731E-2,-2.2877444E-2,1.1731626E-3,-5.7101166E-3,1.2988818E-2,-3.2055046E-2,-3.9960723E-2,-5.6910343E-3,5.8738426E-3,-2.9633611E-2,4.636909E-3,-2.8883863E-2,-1.410829E-2,1.2068619E-3,1.5023751E-3,-8.145953E-3],"split_indices":[0,3,0,6,12,12,3,8,5,5,12,9,1,9,8,0,0,0,0,0,0,0,0,0,0,0,0,0,0,0,0],"split_type":[0,0,0,0,0,0,0,0,0,0,0,0,0,0,0,0,0,0,0,0,0,0,0,0,0,0,0,0,0,0,0],"sum_hessian":[8.33344E3,4.8881997E3,3.4452405E3,4.418227E3,4.6997278E2,2.2161049E2,3.2236301E3,6.185648E1,4.3563706E3,4.13656E2,5.6316784E1,9.2117584E1,1.294929E2,2.18039E3,1.0432401E3,5.3632675E1,8.223807E0,3.9815432E3,3.7482745E2,4.0343042E2,1.0225582E1,1.7422007E1,3.889478E1,2.1468063E1,7.064952E1,1.0076935E2,2.8723557E1,1.1461543E2,2.0657744E3,4.124858E2,6.307544E2],"tree_param":{"num_deleted":"0","num_feature":"13","num_nodes":"31","size_leaf_vector":"1"}},{"base_weights":[1.1982225E-3,-1.8282712E-2,6.457921E-2,5.1414475E-2,-3.5390005E-2,7.8973845E-2,-2.9873005E-1,7.8994447E-1,4.253608E-2,-1.8206254E-1,-2.6135935E-2,9.617999E-2,-1.1964618E-1,-1.0482611E-1,-5.593564E-1,5.1337488E-2,-4.0121637E-2,2.234998E-5,9.71014E-3,-1.1294816E-2,1.160731E-2,1.3311364E-3,-2.9658023E-3,6.472423E-3,-1.3607194E-3,2.6266864E-2,-1.1005847E-2,-3.3661112E-2,6.9251144E-3,2.0851811E-2,-3.7264153E-2],"categories":[],"categories_nodes":[],"categories_segments":[],"categories_sizes":[],"default_left":[0,0,0,0,0,0,0,0,0,0,0,0,0,0,0,0,0,0,0,0,0,0,0,0,0,0,0,0,0,0,0],"id":29,"left_children":[1,3,5,7,9,11,13,15,17,19,21,23,25,27,29,-1,-1,-1,-1,-1,-1,-1,-1,-1,-1,-1,-1,-1,-1,-1,-1],"loss_changes":[1.03431835E1,7.6417484E0,1.0323097E1,8.249153E0,6.9791336E0,6.488183E0,3.7450228E0,6.4607353E0,7.974525E0,5.5938225E0,8.47621E0,7.1654644E0,9.935203E0,6.2323704E0,6.097843E0,0E0,0E0,0E0,0E0,0E0,0E0,0E0,0E0,0E0,0E0,0E0,0E0,0E0,0E0,0E0,0E0],"parents":[2147483647,0,0,1,1,2,2,3,3,4,4,5,5,6,6,7,7,8,8,9,9,10,10,11,11,12,12,13,13,14,14],"right_children":[2,4,6,8,10,12,14,16,18,20,22,24,26,28,30,-1,-1,-1,-1,-1,-1,-1,-1,-1,-1,-1,-1,-1,-1,-1,-1],"split_conditions":[2E-1,7.748035E6,2.2120612E0,6.271981E-3,5.5185425E-1,7.5139375E-3,2.99999E-1,1.55514525E-2,2.3735983E-2,7.229444E-3,1.7872341E-2,7.09573E-3,2.2E-1,4.125E-2,1.206005E6,5.1337488E-2,-4.0121637E-2,2.234998E-5,9.71014E-3,-1.1294816E-2,1.160731E-2,1.3311364E-3,-2.9658023E-3,6.472423E-3,-1.3607194E-3,2.6266864E-2,-1.1005847E-2,-3.3661112E-2,6.9251144E-3,2.0851811E-2,-3.7264153E-2],"split_indices":[4,11,12,1,12,7,5,10,10,7,1,2,4,5,11,0,0,0,0,0,0,0,0,0,0,0,0,0,0,0,0],"split_type":[0,0,0,0,0,0,0,0,0,0,0,0,0,0,0,0,0,0,0,0,0,0,0,0,0,0,0,0,0,0,0],"sum_hessian":[8.374984E3,6.4065605E3,1.9684242E3,1.2622E3,5.1443604E3,1.8941586E3,7.426561E1,1.39485235E1,1.2482513E3,3.0420383E2,4.8401567E3,1.7436267E3,1.5053194E2,4.338771E1,3.0877901E1,1.2451977E1,1.4965464E0,9.7788196E2,2.7036942E2,2.7550323E2,2.870059E1,1.868813E3,2.9713438E3,1.3733165E3,3.7031015E2,1.9718433E1,1.308135E2,1.2476607E1,3.0911102E1,4.7404494E0,2.6137451E1],"tree_param":{"num_deleted":"0","num_feature":"13","num_nodes":"31","size_leaf_vector":"1"}},{"base_weights":[-2.1307522E-3,5.4789435E-2,-2.362112E-2,-5.464482E-3,1.4642514E-1,-4.9854774E-2,3.8599942E-2,-1.1306811E-1,5.7817232E-2,-4.9131457E-2,1.7807122E-1,-4.3181524E-2,-3.7432912E-1,3.251768E-1,2.20496E-2,-1.8522431E-4,-1.2126357E-2,3.6030659E-3,-2.9616524E-2,-1.8114906E-2,6.1747273E-3,2.8290523E-2,7.720309E-3,2.1847682E-2,-2.3235846E-3,-2.786464E-2,3.7870933E-3,3.4657508E-2,7.240914E-3,1.8354664E-3,-1.9616865E-2],"categories":[],"categories_nodes":[],"categories_segments":[],"categories_sizes":[],"default_left":[0,0,0,0,0,0,0,0,0,0,0,0,0,0,0,0,0,0,0,0,0,0,0,0,0,0,0,0,0,0,0],"id":30,"left_children":[1,3,5,7,9,11,13,15,17,19,21,23,25,27,29,-1,-1,-1,-1,-1,-1,-1,-1,-1,-1,-1,-1,-1,-1,-1,-1],"loss_changes":[1.0187941E1,1.260449E1,9.870608E0,9.390654E0,5.612957E0,9.193458E0,8.500006E0,7.2293754E0,8.085125E0,6.905945E0,7.0666275E0,6.6057034E0,7.0895367E0,6.3941784E0,1.0322061E1,0E0,0E0,0E0,0E0,0E0,0E0,0E0,0E0,0E0,0E0,0E0,0E0,0E0,0E0,0E0,0E0],"parents":[2147483647,0,0,1,1,2,2,3,3,4,4,5,5,6,6,7,7,8,8,9,9,10,10,11,11,12,12,13,13,14,14],"right_children":[2,4,6,8,10,12,14,16,18,20,22,24,26,28,30,-1,-1,-1,-1,-1,-1,-1,-1,-1,-1,-1,-1,-1,-1,-1,-1],"split_conditions":[3.285E-2,6.3E-2,1.80003E-1,4.2055916E7,1.1427339E-2,6.3825E-2,-6.970821E-3,1.4135234E7,1.2251896E9,7.0347536E-1,9.062088E-3,-1.3993879E-1,8.234793E-2,2.6E-1,6.2295083E-2,-1.8522431E-4,-1.2126357E-2,3.6030659E-3,-2.9616524E-2,-1.8114906E-2,6.1747273E-3,2.8290523E-2,7.720309E-3,2.1847682E-2,-2.3235846E-3,-2.786464E-2,3.7870933E-3,3.4657508E-2,7.240914E-3,1.8354664E-3,-1.9616865E-2],"split_indices":[5,4,4,11,1,10,8,11,11,12,6,9,10,4,1,0,0,0,0,0,0,0,0,0,0,0,0,0,0,0,0],"split_type":[0,0,0,0,0,0,0,0,0,0,0,0,0,0,0,0,0,0,0,0,0,0,0,0,0,0,0,0,0,0,0],"sum_hessian":[8.326623E3,2.2816938E3,6.0449287E3,1.3771238E3,9.045701E2,4.2522803E3,1.7926484E3,5.0968073E2,8.6744305E2,1.2591664E2,7.786535E2,4.167699E3,8.4581245E1,9.685806E1,1.6957904E3,2.7684116E2,2.3283958E2,8.497158E2,1.7727259E1,4.435393E1,8.1562706E1,4.3472355E1,7.3518115E2,2.7468073E1,4.140231E3,5.996566E1,2.4615583E1,3.0923582E1,6.593448E1,1.6387286E3,5.7061733E1],"tree_param":{"num_deleted":"0","num_feature":"13","num_nodes":"31","size_leaf_vector":"1"}},{"base_weights":[-2.8333564E-3,3.376659E-3,-1.4300409E-1,1.975085E-2,-3.7773836E-2,-5.968434E-1,-7.765863E-2,1.1252748E-2,1.7256583E-1,-1.2503843E-1,-1.180829E-3,-2.3791404E-1,-9.293127E-1,-7.8334874E-1,-4.36634E-2,6.279663E-3,-1.2274369E-4,7.6660595E-4,1.4525123E-2,-9.549252E-3,-4.9513887E-4,2.2518724E-2,-1.190147E-3,-4.5677252E-2,1.8165506E-2,-5.243143E-2,1.3428286E-3,-5.4135498E-2,1.2668776E-2,4.2148884E-2,-3.1193045E-3],"categories":[],"categories_nodes":[],"categories_segments":[],"categories_sizes":[],"default_left":[0,0,0,0,0,0,0,0,0,0,0,0,0,0,0,0,0,0,0,0,0,0,0,0,0,0,0,0,0,0,0],"id":31,"left_children":[1,3,5,7,9,11,13,15,17,19,21,23,25,27,29,-1,-1,-1,-1,-1,-1,-1,-1,-1,-1,-1,-1,-1,-1,-1,-1],"loss_changes":[7.270169E0,5.3899784E0,1.0461651E1,7.429116E0,7.270939E0,5.0828285E0,7.4238186E0,8.498117E0,5.584222E0,5.105917E0,1.6408907E1,9.559607E0,2.621296E0,4.690275E0,4.9936795E0,0E0,0E0,0E0,0E0,0E0,0E0,0E0,0E0,0E0,0E0,0E0,0E0,0E0,0E0,0E0,0E0],"parents":[2147483647,0,0,1,1,2,2,3,3,4,4,5,5,6,6,7,7,8,8,9,9,10,10,11,11,12,12,13,13,14,14],"right_children":[2,4,6,8,10,12,14,16,18,20,22,24,26,28,30,-1,-1,-1,-1,-1,-1,-1,-1,-1,-1,-1,-1,-1,-1,-1,-1],"split_conditions":[7.756941E-3,7.09573E-3,8.74999E-3,5.415107E-3,-1.2281255E-3,9.154355E-3,1.7423688E-2,-7.691028E-3,2.1376405E-2,3.1797443E-2,-6.881847E-4,5.656662E8,1.689301E-2,1.0461173E8,-5.104198E-2,6.279663E-3,-1.2274369E-4,7.6660595E-4,1.4525123E-2,-9.549252E-3,-4.9513887E-4,2.2518724E-2,-1.190147E-3,-4.5677252E-2,1.8165506E-2,-5.243143E-2,1.3428286E-3,-5.4135498E-2,1.2668776E-2,4.2148884E-2,-3.1193045E-3],"split_indices":[8,2,3,8,7,7,10,7,10,10,7,11,2,11,0,0,0,0,0,0,0,0,0,0,0,0,0,0,0,0,0],"split_type":[0,0,0,0,0,0,0,0,0,0,0,0,0,0,0,0,0,0,0,0,0,0,0,0,0,0,0,0,0,0,0],"sum_hessian":[8.350521E3,7.997196E3,3.5332565E2,5.7211953E3,2.2760005E3,4.3446434E1,3.098792E2,5.4208154E3,3.0038007E2,6.71717E2,1.6042834E3,2.1716831E1,2.1729603E1,1.32286825E1,2.9665054E2,5.7942737E2,4.8413877E3,1.292257E2,1.7115437E2,4.26672E2,2.45045E2,7.563525E1,1.5286483E3,9.981056E0,1.1735775E1,1.923292E1,2.4966824E0,1.0230267E1,2.9984157E0,5.2242427E0,2.914263E2],"tree_param":{"num_deleted":"0","num_feature":"13","num_nodes":"31","size_leaf_vector":"1"}},{"base_weights":[4.8912596E-3,4.632657E-2,-1.938154E-2,-1.8054695E-1,6.1620988E-2,-6.784707E-3,-1.6148177E-1,-2.8056972E-2,-3.3185852E-1,5.176649E-2,3.0982208E-1,-3.630572E-2,4.3085143E-2,3.7243748E-1,-2.117811E-1,-8.586762E-3,3.6768787E-2,-2.4254894E-2,4.1202423E-3,-2.5911301E-2,2.7727939E-3,5.2244425E-2,1.1553914E-2,1.2195441E-2,-2.2157815E-3,1.142682E-2,1.0290056E-3,-2.2860207E-2,3.2643985E-2,-1.2112326E-2,1.4988798E-2],"categories":[],"categories_nodes":[],"categories_segments":[],"categories_sizes":[],"default_left":[0,0,0,0,0,0,0,0,0,0,0,0,0,0,0,0,0,0,0,0,0,0,0,0,0,0,0,0,0,0,0],"id":32,"left_children":[1,3,5,7,9,11,13,15,17,19,21,23,25,27,29,-1,-1,-1,-1,-1,-1,-1,-1,-1,-1,-1,-1,-1,-1,-1,-1],"loss_changes":[8.378962E0,1.0689682E1,9.403047E0,4.4811797E0,7.0376024E0,7.107791E0,1.1566644E1,1.0878335E1,6.2353516E0,5.864225E0,6.12134E0,6.8174524E0,7.488207E0,8.951616E0,6.17511E0,0E0,0E0,0E0,0E0,0E0,0E0,0E0,0E0,0E0,0E0,0E0,0E0,0E0,0E0,0E0,0E0],"parents":[2147483647,0,0,1,1,2,2,3,3,4,4,5,5,6,6,7,7,8,8,9,9,10,10,11,11,12,12,13,13,14,14],"right_children":[2,4,6,8,10,12,14,16,18,20,22,24,26,28,30,-1,-1,-1,-1,-1,-1,-1,-1,-1,-1,-1,-1,-1,-1,-1,-1],"split_conditions":[5.334E-2,7.4998E-4,7.826156E-3,6.008147E-4,3.8999E-1,1.50001E-1,6.9999E-2,6.6891587E-3,4.9127843E-3,-2.5816659E-2,-5.9137065E-3,8.74999E-3,6.1310375E-1,3.1842873E-3,6.1E-1,-8.586762E-3,3.6768787E-2,-2.4254894E-2,4.1202423E-3,-2.5911301E-2,2.7727939E-3,5.2244425E-2,1.1553914E-2,1.2195441E-2,-2.2157815E-3,1.142682E-2,1.0290056E-3,-2.2860207E-2,3.2643985E-2,-1.2112326E-2,1.4988798E-2],"split_indices":[5,4,7,7,4,4,5,9,8,7,8,3,12,8,4,0,0,0,0,0,0,0,0,0,0,0,0,0,0,0,0],"split_type":[0,0,0,0,0,0,0,0,0,0,0,0,0,0,0,0,0,0,0,0,0,0,0,0,0,0,0,0,0,0,0],"sum_hessian":[8.329156E3,3.0764832E3,5.2526733E3,1.9361678E2,2.8828665E3,4.8259155E3,4.2675772E2,9.702329E1,9.659348E1,2.7739395E3,1.0892707E2,3.0315989E3,1.7943168E3,3.6191063E1,3.9056665E2,8.230795E1,1.4715334E1,7.038611E1,2.6207376E1,1.6942493E1,2.7569968E3,9.352533E0,9.957453E1,8.343125E1,2.9481677E3,1.9319023E2,1.6011266E3,8.983773E0,2.720729E1,3.6911096E2,2.1455694E1],"tree_param":{"num_deleted":"0","num_feature":"13","num_nodes":"31","size_leaf_vector":"1"}},{"base_weights":[-1.0434106E-3,2.585047E-3,-2.3218264E-1,7.923408E-3,-1.1216369E-1,-5.952279E-2,-5.0755495E-1,-1.662073E-2,3.4879074E-2,8.528791E-1,-1.3738208E-1,-3.9449048E-1,3.1371096E-1,-8.5364777E-1,-2.516034E-1,-1.698662E-4,-1.0335061E-2,5.1951017E-3,2.2821865E-4,-1.9960625E-2,5.6919295E-2,-2.7598161E-2,-5.282491E-3,-4.603475E-2,-9.786292E-3,1.0272391E-2,7.158994E-2,-1.5575309E-2,-5.2045293E-2,5.1338155E-2,-1.898256E-2],"categories":[],"categories_nodes":[],"categories_segments":[],"categories_sizes":[],"default_left":[0,0,0,0,0,0,0,0,0,0,0,0,0,0,0,0,0,0,0,0,0,0,0,0,0,0,0,0,0,0,0],"id":33,"left_children":[1,3,5,7,9,11,13,15,17,19,21,23,25,27,29,-1,-1,-1,-1,-1,-1,-1,-1,-1,-1,-1,-1,-1,-1,-1,-1],"loss_changes":[7.0076413E0,5.0403314E0,6.1098304E0,5.202067E0,9.019021E0,1.0188653E1,4.181965E0,1.0344202E1,7.8402514E0,3.8339934E0,4.642486E0,4.303677E0,4.3824935E0,1.7755432E0,5.292512E0,0E0,0E0,0E0,0E0,0E0,0E0,0E0,0E0,0E0,0E0,0E0,0E0,0E0,0E0,0E0,0E0],"parents":[2147483647,0,0,1,1,2,2,3,3,4,4,5,5,6,6,7,7,8,8,9,9,10,10,11,11,12,12,13,13,14,14],"right_children":[2,4,6,8,10,12,14,16,18,20,22,24,26,28,30,-1,-1,-1,-1,-1,-1,-1,-1,-1,-1,-1,-1,-1,-1,-1,-1],"split_conditions":[4.4943817E-2,7.5392164E-3,4.722404E-2,7.497227E-3,-4.1405875E-2,3.0445844E7,2.8E-1,2.1954088E-2,2.1168549E-2,7.4998E-4,1.25E-3,2.5546968E-2,3.0036411E0,2.3E-2,-1.3993879E-1,-1.698662E-4,-1.0335061E-2,5.1951017E-3,2.2821865E-4,-1.9960625E-2,5.6919295E-2,-2.7598161E-2,-5.282491E-3,-4.603475E-2,-9.786292E-3,1.0272391E-2,7.158994E-2,-1.5575309E-2,-5.2045293E-2,5.1338155E-2,-1.898256E-2],"split_indices":[2,8,6,9,2,11,3,0,9,4,4,6,12,3,9,0,0,0,0,0,0,0,0,0,0,0,0,0,0,0,0],"split_type":[0,0,0,0,0,0,0,0,0,0,0,0,0,0,0,0,0,0,0,0,0,0,0,0,0,0,0,0,0,0,0],"sum_hessian":[8.353856E3,8.225717E3,1.281397E2,7.86094E3,3.6477713E2,7.950549E1,4.86342E1,4.1147188E3,3.7462212E3,8.453757E0,3.563234E2,4.187068E1,3.763481E1,1.9683435E1,2.8950766E1,3.8480386E3,2.6668018E2,1.1424869E3,2.6037341E3,1.4957738E0,6.957983E0,2.4168476E1,3.321549E2,1.0483869E1,3.1386812E1,3.5391632E1,2.2431812E0,5.7371106E0,1.3946325E1,1.9968266E0,2.695394E1],"tree_param":{"num_deleted":"0","num_feature":"13","num_nodes":"31","size_leaf_vector":"1"}},{"base_weights":[-3.590477E-3,-1.7093852E-2,6.70982E-2,-1.0350214E-2,-1.9138993E-1,1.5096219E-1,-1.0861611E-2,1.4956338E-2,-5.0955776E-2,8.140719E-1,-2.2416529E-1,4.293042E-1,1.0856528E-1,6.773562E-2,-1.2858059E-1,2.3123454E-3,-2.9709379E-3,-3.3118676E-3,1.131536E-2,5.8991272E-2,-3.6018975E-2,-1.6902573E-2,6.601547E-4,-2.3130162E-2,2.7847454E-2,1.1438992E-2,1.3658981E-3,-1.3497564E-3,1.1136222E-2,4.484381E-3,-1.4846041E-2],"categories":[],"categories_nodes":[],"categories_segments":[],"categories_sizes":[],"default_left":[0,0,0,0,0,0,0,0,0,0,0,0,0,0,0,0,0,0,0,0,0,0,0,0,0,0,0,0,0,0,0],"id":34,"left_children":[1,3,5,7,9,11,13,15,17,19,21,23,25,27,29,-1,-1,-1,-1,-1,-1,-1,-1,-1,-1,-1,-1,-1,-1,-1,-1],"loss_changes":[7.954649E0,8.2218895E0,8.740396E0,6.92377E0,8.76931E0,7.5529795E0,6.42634E0,9.663669E0,1.0975786E1,5.587589E0,6.8471985E0,9.910426E0,5.465285E0,6.122273E0,1.024284E1,0E0,0E0,0E0,0E0,0E0,0E0,0E0,0E0,0E0,0E0,0E0,0E0,0E0,0E0,0E0,0E0],"parents":[2147483647,0,0,1,1,2,2,3,3,4,4,5,5,6,6,7,7,8,8,9,9,10,10,11,11,12,12,13,13,14,14],"right_children":[2,4,6,8,10,12,14,16,18,20,22,24,26,28,30,-1,-1,-1,-1,-1,-1,-1,-1,-1,-1,-1,-1,-1,-1,-1,-1],"split_conditions":[2.7E-1,8.31495E-3,1.9E-1,2.315321E-2,-4.1405875E-2,-5.0687555E-2,3.0291579E-3,2.6775448E-2,8.2187496E-2,6.3825E-2,1.20581025E-2,2.9E-1,1.4175581E-2,1.2911798E-3,1.9734548E-2,2.3123454E-3,-2.9709379E-3,-3.3118676E-3,1.131536E-2,5.8991272E-2,-3.6018975E-2,-1.6902573E-2,6.601547E-4,-2.3130162E-2,2.7847454E-2,1.1438992E-2,1.3658981E-3,-1.3497564E-3,1.1136222E-2,4.484381E-3,-1.4846041E-2],"split_indices":[4,8,5,1,2,9,0,9,9,10,8,4,6,8,10,0,0,0,0,0,0,0,0,0,0,0,0,0,0,0,0],"split_type":[0,0,0,0,0,0,0,0,0,0,0,0,0,0,0,0,0,0,0,0,0,0,0,0,0,0,0,0,0,0,0],"sum_hessian":[8.331324E3,6.9957188E3,1.335606E3,6.7361514E3,2.5956705E2,6.4298694E2,6.92619E2,4.1502363E3,2.585915E3,7.441563E0,2.5212549E2,8.378698E1,5.5919995E2,4.1557645E2,2.770426E2,2.9215012E3,1.2287355E3,2.4515566E3,1.3435843E2,6.1958284E0,1.2457349E0,1.70093E2,8.203249E1,1.0161344E1,7.362564E1,2.2478679E2,3.3441318E2,2.5844067E2,1.5713576E2,1.2083562E2,1.5620699E2],"tree_param":{"num_deleted":"0","num_feature":"13","num_nodes":"31","size_leaf_vector":"1"}},{"base_weights":[2.082001E-3,2.9013257E-2,-3.516851E-2,3.4940638E-2,-3.6634567E-1,-2.1626386E-1,-2.400769E-2,1.9842071E-2,1.14424355E-1,8.790311E-2,-6.218005E-1,-2.7396354E-1,7.5413145E-2,3.5071727E-2,-5.508883E-2,-5.5366434E-4,3.6263135E-3,3.3005632E-2,5.083777E-3,-4.4651333E-2,2.8669704E-2,-5.0127305E-2,-1.8265821E-2,1.665753E-3,-2.0123946E-2,-6.818078E-4,1.205781E-2,-1.4802425E-2,-1.7503633E-3],"categories":[],"categories_nodes":[],"categories_segments":[],"categories_sizes":[],"default_left":[0,0,0,0,0,0,0,0,0,0,0,0,0,0,0,0,0,0,0,0,0,0,0,0,0,0,0,0,0],"id":35,"left_children":[1,3,5,7,9,11,13,15,17,19,21,23,-1,25,27,-1,-1,-1,-1,-1,-1,-1,-1,-1,-1,-1,-1,-1,-1],"loss_changes":[8.386191E0,1.1382448E1,7.084501E0,5.7352824E0,8.380657E0,2.0662817E1,6.071138E0,6.546661E0,5.240917E0,1.3228723E1,4.130623E0,7.823036E0,0E0,1.1446726E1,1.0471494E1,0E0,0E0,0E0,0E0,0E0,0E0,0E0,0E0,0E0,0E0,0E0,0E0,0E0,0E0],"parents":[2147483647,0,0,1,1,2,2,3,3,4,4,5,5,6,6,7,7,8,8,9,9,10,10,11,11,13,13,14,14],"right_children":[2,4,6,8,10,12,14,16,18,20,22,24,-1,26,28,-1,-1,-1,-1,-1,-1,-1,-1,-1,-1,-1,-1,-1,-1],"split_conditions":[3.3439763E-3,1.5428017E-2,9.691845E-3,2.7504E-1,9.635521E-1,4.386072E8,1.7872341E-2,1.5190147E-3,-1.0139701E-2,-5.030235E-3,3.4537725E-2,1.2229962E-2,7.5413145E-2,1.1057432E0,5.5384757E-3,-5.5366434E-4,3.6263135E-3,3.3005632E-2,5.083777E-3,-4.4651333E-2,2.8669704E-2,-5.0127305E-2,-1.8265821E-2,1.665753E-3,-2.0123946E-2,-6.818078E-4,1.205781E-2,-1.4802425E-2,-1.7503633E-3],"split_indices":[0,2,1,4,12,11,1,8,8,8,1,10,0,12,0,0,0,0,0,0,0,0,0,0,0,0,0,0,0],"split_type":[0,0,0,0,0,0,0,0,0,0,0,0,0,0,0,0,0,0,0,0,0,0,0,0,0,0,0,0,0],"sum_hessian":[8.357397E3,4.8506855E3,3.506712E3,4.7799346E3,7.075109E1,2.0250423E2,3.3042078E3,4.0179434E3,7.619909E2,2.5702642E1,4.5048447E1,1.9676204E2,5.742179E0,1.1390187E3,2.1651892E3,2.532594E3,1.4853494E3,1.6236593E1,7.4575433E2,8.231516E0,1.7471127E1,1.696115E1,2.8087297E1,5.824346E1,1.3851859E2,9.2203125E2,2.1698743E2,1.6550803E2,1.9996812E3],"tree_param":{"num_deleted":"0","num_feature":"13","num_nodes":"29","size_leaf_vector":"1"}},{"base_weights":[3.7642024E-3,5.6191657E-2,-1.09180845E-2,4.982696E-1,4.5719333E-2,-4.5563835E-1,-6.9942004E-3,-1.393404E-1,7.05838E-1,-9.181742E-3,1.454222E-1,-2.0067401E-1,-9.716686E-1,5.9399894E-4,-1.7060354E-1,-2.9761875E-2,3.7531894E-2,-2.8107379E-2,4.0995333E-2,-2.634764E-3,4.990803E-3,1.738232E-2,2.239187E-3,3.081571E-2,-2.0906953E-2,-1.7953223E-2,-5.565234E-2,-6.396021E-3,3.629303E-4,-4.3237798E-2,-6.498446E-3],"categories":[],"categories_nodes":[],"categories_segments":[],"categories_sizes":[],"default_left":[0,0,0,0,0,0,0,0,0,0,0,0,0,0,0,0,0,0,0,0,0,0,0,0,0,0,0,0,0,0,0],"id":36,"left_children":[1,3,5,7,9,11,13,15,17,19,21,23,25,27,29,-1,-1,-1,-1,-1,-1,-1,-1,-1,-1,-1,-1,-1,-1,-1,-1],"loss_changes":[6.4404616E0,8.451673E0,1.1403383E1,5.691101E0,9.795284E0,7.3247414E0,8.045578E0,4.9964886E0,5.095766E0,5.4823813E0,1.2916475E1,7.2779818E0,1.2147617E0,5.3062515E0,7.9897985E0,0E0,0E0,0E0,0E0,0E0,0E0,0E0,0E0,0E0,0E0,0E0,0E0,0E0,0E0,0E0,0E0],"parents":[2147483647,0,0,1,1,2,2,3,3,4,4,5,5,6,6,7,7,8,8,9,9,10,10,11,11,12,12,13,13,14,14],"right_children":[2,4,6,8,10,12,14,16,18,20,22,24,26,28,30,-1,-1,-1,-1,-1,-1,-1,-1,-1,-1,-1,-1,-1,-1,-1,-1],"split_conditions":[-9.9762E-3,1.4498432E-2,-2.8644206E-2,7.06458E-1,9.142E-2,3.7190764E7,7.756941E-3,1.6624322E-2,7.876245E-3,1.6853488E-3,-2.9629793E-3,-6.7566335E-3,3.0003E-2,5.0622904E-1,1.7851241E-2,-2.9761875E-2,3.7531894E-2,-2.8107379E-2,4.0995333E-2,-2.634764E-3,4.990803E-3,1.738232E-2,2.239187E-3,3.081571E-2,-2.0906953E-2,-1.7953223E-2,-5.565234E-2,-6.396021E-3,3.629303E-4,-4.3237798E-2,-6.498446E-3],"split_indices":[2,1,0,12,4,11,8,6,6,8,8,8,5,12,10,0,0,0,0,0,0,0,0,0,0,0,0,0,0,0,0],"split_type":[0,0,0,0,0,0,0,0,0,0,0,0,0,0,0,0,0,0,0,0,0,0,0,0,0,0,0,0,0,0,0],"sum_hessian":[8.365102E3,1.8295007E3,6.535601E3,4.1258007E1,1.7882428E3,5.6154144E1,6.479447E3,1.0213333E1,3.1044674E1,1.1538092E3,6.3443353E2,3.8513813E1,1.7640331E1,6.1932026E3,2.8624432E2,6.9727E0,3.2406328E0,2.2380767E0,2.8806597E1,8.249811E2,3.288281E2,2.1000084E2,4.244327E2,7.7108946E0,3.0802917E1,3.9714477E0,1.3668884E1,3.0444073E2,5.8887617E3,1.4708079E1,2.7153622E2],"tree_param":{"num_deleted":"0","num_feature":"13","num_nodes":"31","size_leaf_vector":"1"}},{"base_weights":[5.4149707E-3,-1.4676692E-2,6.4900085E-2,5.1362403E-2,-2.9298455E-2,6.77557E-2,-9.113645E-1,5.6756246E-1,3.0980557E-2,-1.3356744E-2,-1.09464414E-1,3.749377E-1,5.893553E-2,9.227549E-3,-1.2215481E0,-1.7050119E-3,4.136703E-2,-9.126688E-3,3.2162413E-3,-8.369203E-3,-9.07244E-5,-1.9062905E-2,-3.844001E-3,2.6846435E-3,3.7634693E-2,3.3366159E-3,-1.628561E-2,-7.38118E-2,-1.2679882E-2],"categories":[],"categories_nodes":[],"categories_segments":[],"categories_sizes":[],"default_left":[0,0,0,0,0,0,0,0,0,0,0,0,0,0,0,0,0,0,0,0,0,0,0,0,0,0,0,0,0],"id":37,"left_children":[1,3,5,7,9,11,13,15,17,19,21,23,25,-1,27,-1,-1,-1,-1,-1,-1,-1,-1,-1,-1,-1,-1,-1,-1],"loss_changes":[1.0010659E1,6.0476217E0,5.9574003E0,1.192816E1,6.5508237E0,5.693486E0,2.345602E0,6.7600403E0,7.795729E0,7.6047783E0,7.501171E0,7.082284E0,6.175252E0,0E0,8.563714E-1,0E0,0E0,0E0,0E0,0E0,0E0,0E0,0E0,0E0,0E0,0E0,0E0,0E0,0E0],"parents":[2147483647,0,0,1,1,2,2,3,3,4,4,5,5,6,6,7,7,8,8,9,9,10,10,11,11,12,12,14,14],"right_children":[2,4,6,8,10,12,14,16,18,20,22,24,26,-1,28,-1,-1,-1,-1,-1,-1,-1,-1,-1,-1,-1,-1,-1,-1],"split_conditions":[1.80003E-1,7.28454E6,5.862156E8,7.489858E-3,3.9E-1,-8.970702E-3,-4.0431265E-3,3.8982993E-3,1.0697697E-2,5.5185425E-1,9.959486E6,-1.7649379E-3,7.521579E-2,9.227549E-3,2.699983E-1,-1.7050119E-3,4.136703E-2,-9.126688E-3,3.2162413E-3,-8.369203E-3,-9.07244E-5,-1.9062905E-2,-3.844001E-3,2.6846435E-3,3.7634693E-2,3.3366159E-3,-1.628561E-2,-7.38118E-2,-1.2679882E-2],"split_indices":[4,11,11,1,3,8,2,9,1,12,11,2,1,0,4,0,0,0,0,0,0,0,0,0,0,0,0,0,0],"split_type":[0,0,0,0,0,0,0,0,0,0,0,0,0,0,0,0,0,0,0,0,0,0,0,0,0,0,0,0,0],"sum_hessian":[8.374238E3,6.260461E3,2.1137769E3,1.134407E3,5.126054E3,2.10854E3,5.2369704E0,4.2070236E1,1.0923367E3,4.276751E3,8.493032E2,5.769442E1,2.0508455E3,1.2446171E0,3.9923534E0,1.2948777E1,2.9121458E1,1.4694234E2,9.4539435E2,2.9720145E2,3.9795496E3,8.977439E1,7.595288E2,3.1796623E1,2.5897799E1,2.010911E3,3.9934532E1,2.7449775E0,1.2473761E0],"tree_param":{"num_deleted":"0","num_feature":"13","num_nodes":"29","size_leaf_vector":"1"}},{"base_weights":[1.1249993E-3,2.116594E-1,-3.0002922E-3,3.6207777E-1,-1.3343054E-1,4.727616E-2,-1.84087E-2,6.6812223E-1,1.3980107E-1,-5.519011E-1,6.741459E-1,1.1894143E-1,2.7829732E-4,-7.5277775E-3,-1.1624765E-1,-2.5407469E-2,3.761452E-2,2.3967087E-2,-5.2014086E-3,5.5650186E-2,-3.258839E-2,-3.5229605E-2,4.897481E-2,3.9886856E-3,2.0047722E-2,-5.0615547E-3,4.1249706E-3,-2.055081E-3,1.5392674E-3,-3.6022465E-3,-2.1816969E-2],"categories":[],"categories_nodes":[],"categories_segments":[],"categories_sizes":[],"default_left":[0,0,0,0,0,0,0,0,0,0,0,0,0,0,0,0,0,0,0,0,0,0,0,0,0,0,0,0,0,0,0],"id":38,"left_children":[1,3,5,7,9,11,13,15,17,19,21,23,25,27,29,-1,-1,-1,-1,-1,-1,-1,-1,-1,-1,-1,-1,-1,-1,-1,-1],"loss_changes":[7.2646937E0,8.392358E0,6.356357E0,7.5405016E0,1.7109816E1,6.4828615E0,6.68492E0,5.0304127E0,5.5364227E0,6.2410355E0,7.9964876E0,8.388564E0,9.718792E0,7.272516E0,8.860737E0,0E0,0E0,0E0,0E0,0E0,0E0,0E0,0E0,0E0,0E0,0E0,0E0,0E0,0E0,0E0,0E0],"parents":[2147483647,0,0,1,1,2,2,3,3,4,4,5,5,6,6,7,7,8,8,9,9,10,10,11,11,12,12,13,13,14,14],"right_children":[2,4,6,8,10,12,14,16,18,20,22,24,26,28,30,-1,-1,-1,-1,-1,-1,-1,-1,-1,-1,-1,-1,-1,-1,-1,-1],"split_conditions":[-4.1405875E-2,-4.164964E-2,7.59207E6,2.75E-2,3.9618607E-3,2.478661E-4,3.3E-1,1.9381614E-2,7.1428575E-2,6.2204593E-1,1.7063484E7,1.0087863E-2,1.49399955E-2,3.836445E7,5.080439E-2,-2.5407469E-2,3.761452E-2,2.3967087E-2,-5.2014086E-3,5.5650186E-2,-3.258839E-2,-3.5229605E-2,4.897481E-2,3.9886856E-3,2.0047722E-2,-5.0615547E-3,4.1249706E-3,-2.055081E-3,1.5392674E-3,-3.6022465E-3,-2.1816969E-2],"split_indices":[2,9,11,5,8,8,5,6,1,12,11,9,1,11,1,0,0,0,0,0,0,0,0,0,0,0,0,0,0,0,0],"split_type":[0,0,0,0,0,0,0,0,0,0,0,0,0,0,0,0,0,0,0,0,0,0,0,0,0,0,0,0,0,0,0],"sum_hessian":[8.362761E3,1.5974724E2,8.203014E3,1.1121948E2,4.852776E1,1.9237845E3,6.2792295E3,4.5948666E1,6.527081E1,3.217295E1,1.6354809E1,7.6133014E2,1.1624543E3,5.6517593E3,6.274699E2,2.7319303E0,4.3216736E1,2.6877321E1,3.8393494E1,1.2465453E0,3.0926407E1,2.7283037E0,1.3626505E1,6.6961304E2,9.171714E1,5.201057E2,6.4234863E2,3.0121423E3,2.6396172E3,5.5241046E2,7.505944E1],"tree_param":{"num_deleted":"0","num_feature":"13","num_nodes":"31","size_leaf_vector":"1"}},{"base_weights":[4.6471655E-4,5.8238123E-2,-1.6608594E-2,-1.05969E-1,8.007998E-2,4.082329E-3,-6.8974696E-2,7.8696795E-2,-3.709436E-1,9.086513E-2,-2.780274E-1,-1.6101317E-2,9.7959556E-2,3.3086517E-1,-7.8659914E-2,-9.693603E-3,1.3445749E-2,-3.0774588E-2,-6.6846184E-4,1.976486E-2,4.0986496E-3,-2.9293714E-2,5.8682826E-3,-2.4304284E-2,-5.257706E-4,9.440464E-3,-7.261389E-4,-5.1280923E-2,2.471501E-2,6.2322933E-3,-5.047682E-3],"categories":[],"categories_nodes":[],"categories_segments":[],"categories_sizes":[],"default_left":[0,0,0,0,0,0,0,0,0,0,0,0,0,0,0,0,0,0,0,0,0,0,0,0,0,0,0,0,0,0,0],"id":39,"left_children":[1,3,5,7,9,11,13,15,17,19,21,23,25,27,29,-1,-1,-1,-1,-1,-1,-1,-1,-1,-1,-1,-1,-1,-1,-1,-1],"loss_changes":[8.226355E0,6.8316813E0,6.97535E0,1.097872E1,6.5124693E0,8.74649E0,7.0866804E0,6.932007E0,8.043383E0,4.3835974E0,6.076091E0,9.969462E0,8.349954E0,1.0109107E1,8.084649E0,0E0,0E0,0E0,0E0,0E0,0E0,0E0,0E0,0E0,0E0,0E0,0E0,0E0,0E0,0E0,0E0],"parents":[2147483647,0,0,1,1,2,2,3,3,4,4,5,5,6,6,7,7,8,8,9,9,10,10,11,11,12,12,13,13,14,14],"right_children":[2,4,6,8,10,12,14,16,18,20,22,24,26,28,30,-1,-1,-1,-1,-1,-1,-1,-1,-1,-1,-1,-1,-1,-1,-1,-1],"split_conditions":[2.666E-2,1.50001E-3,2.1320743E-2,2.2568705E-3,1.9912084E0,2.7E-1,-2.1389361E-2,1.8319987E-2,7.229444E-3,-4.1405875E-2,2.436892E-3,-3.593659E-2,2.7E-1,3.0003E-2,3E-2,-9.693603E-3,1.3445749E-2,-3.0774588E-2,-6.6846184E-4,1.976486E-2,4.0986496E-3,-2.9293714E-2,5.8682826E-3,-2.4304284E-2,-5.257706E-4,9.440464E-3,-7.261389E-4,-5.1280923E-2,2.471501E-2,6.2322933E-3,-5.047682E-3],"split_indices":[5,4,6,7,12,4,7,6,7,2,8,0,5,5,3,0,0,0,0,0,0,0,0,0,0,0,0,0,0,0,0],"split_type":[0,0,0,0,0,0,0,0,0,0,0,0,0,0,0,0,0,0,0,0,0,0,0,0,0,0,0,0,0,0,0],"sum_hessian":[8.337937E3,1.9014194E3,6.4365166E3,2.2277144E2,1.678648E3,4.614253E3,1.8222639E3,1.3169424E2,9.10772E1,1.6302946E3,4.835347E1,3.7984194E3,8.1583344E2,4.231204E1,1.7799519E3,5.4122055E1,7.757219E1,5.365844E1,3.741876E1,4.5034515E1,1.58526E3,2.6915628E1,2.1437843E1,4.360474E1,3.7548147E3,4.5093985E2,3.648936E2,3.9825056E0,3.8329533E1,1.7544102E2,1.6045109E3],"tree_param":{"num_deleted":"0","num_feature":"13","num_nodes":"31","size_leaf_vector":"1"}},{"base_weights":[5.7926564E-3,4.6788692E-1,3.912829E-3,2.1228708E-1,1.2785007E0,8.046417E-3,-1.8014894E-1,5.803093E-1,-5.622417E-1,7.8364514E-2,1.3762879E-2,9.910396E-3,-4.3738773E-1,5.435513E-2,-4.0088934E-1,-3.4091708E-3,5.4422826E-2,1.8394722E-2,-5.963626E-2,4.1564956E-4,2.4306625E-2,-3.4626316E-2,1.0430712E-3,1.101272E-2,-2.3613816E-2,-3.1132748E-2,4.5397915E-3],"categories":[],"categories_nodes":[],"categories_segments":[],"categories_sizes":[],"default_left":[0,0,0,0,0,0,0,0,0,0,0,0,0,0,0,0,0,0,0,0,0,0,0,0,0,0,0],"id":40,"left_children":[1,3,5,7,9,11,13,15,17,-1,-1,19,21,23,25,-1,-1,-1,-1,-1,-1,-1,-1,-1,-1,-1,-1],"loss_changes":[7.2785044E0,6.7624507E0,6.3530455E0,8.025066E0,1.8687954E0,6.7842216E0,9.515671E0,6.269851E0,5.838526E0,0E0,0E0,6.1826873E0,3.9955406E0,7.9505816E0,1.0371014E1,0E0,0E0,0E0,0E0,0E0,0E0,0E0,0E0,0E0,0E0,0E0,0E0],"parents":[2147483647,0,0,1,1,2,2,3,3,4,4,5,5,6,6,7,7,8,8,11,11,12,12,13,13,14,14],"right_children":[2,4,6,8,10,12,14,16,18,-1,-1,20,22,24,26,-1,-1,-1,-1,-1,-1,-1,-1,-1,-1,-1,-1],"split_conditions":[-6.8409875E-2,-3.11085E-3,6.3825E-2,-1.1924562E-1,8.234793E-2,9.321402E-2,-2.7272077E-3,5E-1,6.1E-1,7.8364514E-2,1.3762879E-2,1.6275916E-2,7.310789E-2,3.2289628E-2,8.013082E-2,-3.4091708E-3,5.4422826E-2,1.8394722E-2,-5.963626E-2,4.1564956E-4,2.4306625E-2,-3.4626316E-2,1.0430712E-3,1.101272E-2,-2.3613816E-2,-3.1132748E-2,4.5397915E-3],"split_indices":[2,7,10,9,10,1,7,3,3,0,0,8,2,2,1,0,0,0,0,0,0,0,0,0,0,0,0],"split_type":[0,0,0,0,0,0,0,0,0,0,0,0,0,0,0,0,0,0,0,0,0,0,0,0,0,0,0],"sum_hessian":[8.380134E3,3.294839E1,8.347186E3,2.600916E1,6.939232E0,8.1647803E3,1.8240518E2,1.7801447E1,8.207711E0,4.951646E0,1.9875859E0,8.1317295E3,3.3050583E1,8.88107E1,9.359449E1,8.2011E0,9.600347E0,3.4841392E0,4.7235723E0,8.1055586E3,2.617125E1,2.090185E1,1.2148732E1,6.797804E1,2.0832653E1,6.431845E1,2.9276037E1],"tree_param":{"num_deleted":"0","num_feature":"13","num_nodes":"27","size_leaf_vector":"1"}},{"base_weights":[-7.949124E-3,-2.8608492E-2,3.0769808E-2,-1.4229737E-2,-9.758138E-2,4.4141486E-2,-1.22775376E-1,-5.735159E-2,2.0789083E-2,-8.206588E-2,-7.56534E-1,2.206698E-2,1.6536303E-1,-8.321893E-2,-1.2326173E0,-4.92634E-4,-6.532164E-3,2.7810556E-3,-3.1835611E-3,5.9967083E-3,-5.534859E-3,-5.2338637E-2,-1.376679E-3,3.0406092E-3,-3.2962344E-3,1.0802776E-2,-1.1215105E-2,-1.2154456E-2,7.0781657E-3,-7.657083E-2,1.8045068E-3],"categories":[],"categories_nodes":[],"categories_segments":[],"categories_sizes":[],"default_left":[0,0,0,0,0,0,0,0,0,0,0,0,0,0,0,0,0,0,0,0,0,0,0,0,0,0,0,0,0,0,0],"id":41,"left_children":[1,3,5,7,9,11,13,15,17,19,21,23,25,27,29,-1,-1,-1,-1,-1,-1,-1,-1,-1,-1,-1,-1,-1,-1,-1,-1],"loss_changes":[6.70628E0,5.4201283E0,5.9945993E0,6.8339596E0,9.577745E0,7.178776E0,1.0168135E1,7.05892E0,7.351675E0,5.3474026E0,4.5346355E0,7.749091E0,8.212979E0,8.190823E0,3.0800009E0,0E0,0E0,0E0,0E0,0E0,0E0,0E0,0E0,0E0,0E0,0E0,0E0,0E0,0E0,0E0,0E0],"parents":[2147483647,0,0,1,1,2,2,3,3,4,4,5,5,6,6,7,7,8,8,9,9,10,10,11,11,12,12,13,13,14,14],"right_children":[2,4,6,8,10,12,14,16,18,20,22,24,26,28,30,-1,-1,-1,-1,-1,-1,-1,-1,-1,-1,-1,-1,-1,-1,-1,-1],"split_conditions":[1.30001E-1,4.05E-1,2.1954088E-2,8.333E-2,1.1628544E-1,7.3E-1,1.400498E0,3.96E-2,1.35E-1,-5.7581846E-2,6.6332094E-2,2.3E-1,1.16E0,4.6054185E-3,6.043667E-2,-4.92634E-4,-6.532164E-3,2.7810556E-3,-3.1835611E-3,5.9967083E-3,-5.534859E-3,-5.2338637E-2,-1.376679E-3,3.0406092E-3,-3.2962344E-3,1.0802776E-2,-1.1215105E-2,-1.2154456E-2,7.0781657E-3,-7.657083E-2,1.8045068E-3],"split_indices":[4,3,0,3,9,3,4,3,5,9,1,5,5,7,0,0,0,0,0,0,0,0,0,0,0,0,0,0,0,0,0],"split_type":[0,0,0,0,0,0,0,0,0,0,0,0,0,0,0,0,0,0,0,0,0,0,0,0,0,0,0,0,0,0,0],"sum_hessian":[8.381707E3,5.4656475E3,2.9160598E3,4.5237827E3,9.418651E2,2.68311E3,2.3294952E2,2.0270519E3,2.4967307E3,9.212971E2,2.0568043E1,2.2707817E3,4.1232846E2,2.2597058E2,6.97895E0,1.2306355E3,7.964163E2,1.7679551E3,7.2877563E2,1.1397681E2,8.073203E2,1.4399308E1,6.1687336E0,1.5767871E3,6.939946E2,3.6525684E2,4.7071625E1,1.3200453E2,9.396604E1,5.4810205E0,1.4979298E0],"tree_param":{"num_deleted":"0","num_feature":"13","num_nodes":"31","size_leaf_vector":"1"}},{"base_weights":[-4.285193E-3,2.0622373E-1,-7.657122E-3,6.672655E-1,5.88658E-2,-3.908708E-3,-1.8894894E-1,1.7743914E-1,1.0071121E0,-1.9367868E-1,4.2677253E-1,3.5196748E-2,-1.8879123E-2,3.7518433E-1,-2.982339E-1,-1.3938262E-2,4.500775E-2,5.94727E-2,-1.7114822E-2,-1.8780435E-2,1.4917268E-2,7.262856E-2,1.4715875E-2,2.4460577E-3,-1.04211625E-2,-6.3464156E-4,-1.3666831E-2,4.8993222E-2,2.0071825E-3,-1.6150232E-2,5.9567846E-2],"categories":[],"categories_nodes":[],"categories_segments":[],"categories_sizes":[],"default_left":[0,0,0,0,0,0,0,0,0,0,0,0,0,0,0,0,0,0,0,0,0,0,0,0,0,0,0,0,0,0,0],"id":42,"left_children":[1,3,5,7,9,11,13,15,17,19,21,23,25,27,29,-1,-1,-1,-1,-1,-1,-1,-1,-1,-1,-1,-1,-1,-1,-1,-1],"loss_changes":[5.912894E0,8.882958E0,5.5699716E0,5.100238E0,9.431263E0,4.703105E0,1.0348429E1,4.93392E0,4.9611835E0,5.5142565E0,5.1794724E0,7.446498E0,9.1414585E0,5.509343E0,5.537689E0,0E0,0E0,0E0,0E0,0E0,0E0,0E0,0E0,0E0,0E0,0E0,0E0,0E0,0E0,0E0,0E0],"parents":[2147483647,0,0,1,1,2,2,3,3,4,4,5,5,6,6,7,7,8,8,9,9,10,10,11,11,12,12,13,13,14,14],"right_children":[2,4,6,8,10,12,14,16,18,20,22,24,26,28,30,-1,-1,-1,-1,-1,-1,-1,-1,-1,-1,-1,-1,-1,-1,-1,-1],"split_conditions":[-1.2874424E-1,4.1333422E-2,6.3825E-2,7.96E-2,3.603174E7,9.14317E6,4.49998E-3,3.3896744E7,5.299983E-1,9.321402E-2,1.25E-3,2.7802281E-2,7.2E-1,7.170716E-2,9.1E-1,-1.3938262E-2,4.500775E-2,5.94727E-2,-1.7114822E-2,-1.8780435E-2,1.4917268E-2,7.262856E-2,1.4715875E-2,2.4460577E-3,-1.04211625E-2,-6.3464156E-4,-1.3666831E-2,4.8993222E-2,2.0071825E-3,-1.6150232E-2,5.9567846E-2],"split_indices":[9,10,10,4,11,11,5,11,5,1,5,0,5,10,4,0,0,0,0,0,0,0,0,0,0,0,0,0,0,0,0],"split_type":[0,0,0,0,0,0,0,0,0,0,0,0,0,0,0,0,0,0,0,0,0,0,0,0,0,0,0,0,0,0,0],"sum_hessian":[8.326894E3,1.3032881E2,8.196564E3,3.0711847E1,9.9616974E1,8.0315254E3,1.6503932E2,1.3203522E1,1.7508326E1,5.9350327E1,4.0266644E1,2.2230808E3,5.808445E3,2.638838E1,1.3865094E2,8.470756E0,4.732766E0,1.5528535E1,1.9797895E0,4.3501785E1,1.5848543E1,3.4650478E0,3.6801598E1,2.1052786E3,1.1780231E2,5.6716084E3,1.3683647E2,8.722119E0,1.766626E1,1.3715335E2,1.4975941E0],"tree_param":{"num_deleted":"0","num_feature":"13","num_nodes":"31","size_leaf_vector":"1"}},{"base_weights":[-4.7235275E-3,-1.963349E-2,7.322909E-2,1.1849776E-2,-4.1317753E-2,1.741054E-1,1.3372822E-2,-4.146468E-2,4.6617057E-2,2.0769837E-1,-4.848129E-2,1.474965E-1,9.353565E-1,2.3591676E-1,-2.190908E-2,-3.560796E-4,-1.46209765E-2,1.5964138E-3,1.3364285E-2,4.9503658E-2,4.78892E-3,-1.1110334E-3,-4.7685546E-3,1.498415E-2,4.1046543E-3,1.9631134E-2,5.7091694E-2,5.6313362E-2,8.231384E-3,2.9347201E-3,-1.0035154E-2],"categories":[],"categories_nodes":[],"categories_segments":[],"categories_sizes":[],"default_left":[0,0,0,0,0,0,0,0,0,0,0,0,0,0,0,0,0,0,0,0,0,0,0,0,0,0,0,0,0,0,0],"id":43,"left_children":[1,3,5,7,9,11,13,15,17,19,21,23,25,27,29,-1,-1,-1,-1,-1,-1,-1,-1,-1,-1,-1,-1,-1,-1,-1,-1],"loss_changes":[9.732069E0,4.7988944E0,8.11544E0,5.316942E0,7.434854E0,1.000176E1,6.6387506E0,9.757048E0,5.6186557E0,1.0113151E1,4.9807796E0,4.801446E0,1.425272E0,7.158185E0,1.053433E1,0E0,0E0,0E0,0E0,0E0,0E0,0E0,0E0,0E0,0E0,0E0,0E0,0E0,0E0,0E0,0E0],"parents":[2147483647,0,0,1,1,2,2,3,3,4,4,5,5,6,6,7,7,8,8,9,9,10,10,11,11,12,12,13,13,14,14],"right_children":[2,4,6,8,10,12,14,16,18,20,22,24,26,28,30,-1,-1,-1,-1,-1,-1,-1,-1,-1,-1,-1,-1,-1,-1,-1,-1],"split_conditions":[2.7E-1,5.334E-2,1.2667E-1,-2.327376E-4,8.74999E-3,1.97E0,-6.535461E-3,2.0023216E-2,1.90001E-1,6.5758E-2,2.3405699E-2,1.30001E-1,3E-2,6.0430336E-1,2.001336E-2,-3.560796E-4,-1.46209765E-2,1.5964138E-3,1.3364285E-2,4.9503658E-2,4.78892E-3,-1.1110334E-3,-4.7685546E-3,1.498415E-2,4.1046543E-3,1.9631134E-2,5.7091694E-2,5.6313362E-2,8.231384E-3,2.9347201E-3,-1.0035154E-2],"split_indices":[4,5,5,8,3,3,7,2,4,5,1,3,5,12,6,0,0,0,0,0,0,0,0,0,0,0,0,0,0,0,0],"split_type":[0,0,0,0,0,0,0,0,0,0,0,0,0,0,0,0,0,0,0,0,0,0,0,0,0,0,0,0,0,0,0],"sum_hessian":[8.371087E3,7.0276577E3,1.343429E3,2.8664001E3,4.1612573E3,4.9957758E2,8.438513E2,1.1313383E3,1.7350619E3,1.15578186E2,4.0456792E3,4.838585E2,1.57191105E1,1.14697754E2,7.2915356E2,9.9605664E2,1.3528165E2,1.627849E3,1.07212875E2,1.3482529E1,1.0209566E2,2.594246E3,1.4514331E3,1.4436203E2,3.3949646E2,5.1317186E0,1.0587392E1,7.405811E0,1.0729194E2,5.0304413E2,2.2610942E2],"tree_param":{"num_deleted":"0","num_feature":"13","num_nodes":"31","size_leaf_vector":"1"}},{"base_weights":[7.5895805E-3,2.8855946E-2,-3.1977657E-2,6.249258E-3,9.634984E-2,3.9916405E-1,-3.78209E-2,1.9548194E-2,-1.422468E-1,3.225862E-1,7.062125E-2,4.9173766E-1,-3.8639616E-2,-1.8541041E-1,-1.38414195E-2,2.3717561E-3,-2.8106086E-3,-1.3221822E-2,1.3959929E-3,1.836358E-2,-4.4112634E-2,-1.6395187E-2,4.286696E-3,1.4873824E-2,6.997325E-2,-1.3117107E-2,8.251633E-3,2.0283824E-2,-1.0221548E-3],"categories":[],"categories_nodes":[],"categories_segments":[],"categories_sizes":[],"default_left":[0,0,0,0,0,0,0,0,0,0,0,0,0,0,0,0,0,0,0,0,0,0,0,0,0,0,0,0,0],"id":44,"left_children":[1,3,5,7,9,11,13,15,17,19,21,23,-1,25,27,-1,-1,-1,-1,-1,-1,-1,-1,-1,-1,-1,-1,-1,-1],"loss_changes":[7.005391E0,8.261339E0,7.3474035E0,8.0152E0,7.884844E0,4.611739E0,1.0163517E1,7.8718014E0,6.944035E0,7.7775164E0,7.382426E0,6.0659065E0,0E0,1.0864985E1,6.854811E0,0E0,0E0,0E0,0E0,0E0,0E0,0E0,0E0,0E0,0E0,0E0,0E0,0E0,0E0],"parents":[2147483647,0,0,1,1,2,2,3,3,4,4,5,5,6,6,7,7,8,8,9,9,10,10,11,11,13,13,14,14],"right_children":[2,4,6,8,10,12,14,16,18,20,22,24,-1,26,28,-1,-1,-1,-1,-1,-1,-1,-1,-1,-1,-1,-1,-1,-1],"split_conditions":[2.6104946E-3,8.24383E-3,1.0576693E-2,2.0601721E-2,2.85189E6,1.76781E-2,1.1538462E-2,-6.6472907E-3,4.0298507E-2,2.7802281E-2,3.558475E6,1.1123073E-2,-3.8639616E-2,9.610649E7,1.090695E6,2.3717561E-3,-2.8106086E-3,-1.3221822E-2,1.3959929E-3,1.836358E-2,-4.4112634E-2,-1.6395187E-2,4.286696E-3,1.4873824E-2,6.997325E-2,-1.3117107E-2,8.251633E-3,2.0283824E-2,-1.0221548E-3],"split_indices":[7,9,10,0,11,1,1,9,1,0,11,0,0,11,11,0,0,0,0,0,0,0,0,0,0,0,0,0,0],"split_type":[0,0,0,0,0,0,0,0,0,0,0,0,0,0,0,0,0,0,0,0,0,0,0,0,0,0,0,0,0],"sum_hessian":[8.3232705E3,5.4137764E3,2.909494E3,4.0562512E3,1.3575251E3,3.800488E1,2.871489E3,3.7236396E3,3.3261154E2,1.3744116E2,1.220084E3,3.576054E1,2.2443364E0,4.0039514E2,2.4710938E3,2.7220452E3,1.0015943E3,1.9327486E2,1.3933667E2,1.331963E2,4.2448497E0,4.382079E1,1.1762632E3,3.055025E1,5.2102914E0,3.2852615E2,7.186899E1,3.7347004E1,2.4337468E3],"tree_param":{"num_deleted":"0","num_feature":"13","num_nodes":"29","size_leaf_vector":"1"}},{"base_weights":[7.823598E-3,7.5087436E-2,-4.7220215E-3,3.5696128E-1,5.673297E-2,-1.14625394E-1,2.6113398E-3,2.053406E-1,8.4563595E-1,1.7656763E-1,9.89957E-3,3.428046E-2,-3.6702147E-1,6.7449617E-3,